digraph Tree {
node [shape=box, style="filled, rounded", color="black", fontname=helvetica] ;
edge [fontname=helvetica] ;
0 [label="X[3] <= 0.538\nmse = 261.658\nsamples = 1025\nvalue = 14.402", fillcolor="#fbebdf"] ;
1 [label="X[4] <= 1.071\nmse = 18.344\nsamples = 722\nvalue = 6.954", fillcolor="#fdf6f1"] ;
0 -> 1 [labeldistance=2.5, labelangle=45, headlabel="True"] ;
2 [label="X[5] <= -0.266\nmse = 9.279\nsamples = 697\nvalue = 6.488", fillcolor="#fdf7f2"] ;
1 -> 2 ;
3 [label="X[3] <= -0.533\nmse = 11.384\nsamples = 251\nvalue = 8.692", fillcolor="#fdf3ed"] ;
2 -> 3 ;
4 [label="X[4] <= 0.5\nmse = 4.505\nsamples = 147\nvalue = 7.275", fillcolor="#fdf6f0"] ;
3 -> 4 ;
5 [label="X[3] <= -0.713\nmse = 2.21\nsamples = 119\nvalue = 6.587", fillcolor="#fdf7f2"] ;
4 -> 5 ;
6 [label="X[1] <= -0.97\nmse = 0.946\nsamples = 19\nvalue = 4.489", fillcolor="#fefaf7"] ;
5 -> 6 ;
7 [label="X[3] <= -1.227\nmse = 0.443\nsamples = 10\nvalue = 5.217", fillcolor="#fef9f5"] ;
6 -> 7 ;
8 [label="mse = 0.0\nsamples = 1\nvalue = 3.69", fillcolor="#fefbf9"] ;
7 -> 8 ;
9 [label="X[26] <= 0.5\nmse = 0.204\nsamples = 9\nvalue = 5.387", fillcolor="#fef8f5"] ;
7 -> 9 ;
10 [label="X[5] <= -1.064\nmse = 0.099\nsamples = 7\nvalue = 5.577", fillcolor="#fef8f4"] ;
9 -> 10 ;
11 [label="X[5] <= -1.358\nmse = 0.007\nsamples = 4\nvalue = 5.835", fillcolor="#fef8f4"] ;
10 -> 11 ;
12 [label="X[4] <= 0.08\nmse = 0.005\nsamples = 3\nvalue = 5.8", fillcolor="#fef8f4"] ;
11 -> 12 ;
13 [label="mse = 0.0\nsamples = 1\nvalue = 5.9", fillcolor="#fdf8f3"] ;
12 -> 13 ;
14 [label="mse = 0.0\nsamples = 2\nvalue = 5.75", fillcolor="#fef8f4"] ;
12 -> 14 ;
15 [label="mse = -0.0\nsamples = 1\nvalue = 5.94", fillcolor="#fdf8f3"] ;
11 -> 15 ;
16 [label="X[3] <= -0.883\nmse = 0.014\nsamples = 3\nvalue = 5.233", fillcolor="#fef9f5"] ;
10 -> 16 ;
17 [label="mse = 0.0\nsamples = 2\nvalue = 5.15", fillcolor="#fef9f5"] ;
16 -> 17 ;
18 [label="mse = 0.0\nsamples = 1\nvalue = 5.4", fillcolor="#fef8f5"] ;
16 -> 18 ;
19 [label="mse = 0.0\nsamples = 2\nvalue = 4.72", fillcolor="#fef9f6"] ;
9 -> 19 ;
20 [label="X[5] <= -0.457\nmse = 0.264\nsamples = 9\nvalue = 3.681", fillcolor="#fefbf9"] ;
6 -> 20 ;
21 [label="X[2] <= 1.44\nmse = 0.038\nsamples = 6\nvalue = 3.363", fillcolor="#fefbf9"] ;
20 -> 21 ;
22 [label="X[5] <= -0.546\nmse = 0.022\nsamples = 3\nvalue = 3.23", fillcolor="#fefcfa"] ;
21 -> 22 ;
23 [label="mse = 0.004\nsamples = 2\nvalue = 3.33", fillcolor="#fefcfa"] ;
22 -> 23 ;
24 [label="mse = 0.0\nsamples = 1\nvalue = 3.03", fillcolor="#fefcfa"] ;
22 -> 24 ;
25 [label="X[1] <= 0.217\nmse = 0.018\nsamples = 3\nvalue = 3.497", fillcolor="#fefbf9"] ;
21 -> 25 ;
26 [label="mse = 0.004\nsamples = 2\nvalue = 3.585", fillcolor="#fefbf9"] ;
25 -> 26 ;
27 [label="mse = -0.0\nsamples = 1\nvalue = 3.32", fillcolor="#fefcfa"] ;
25 -> 27 ;
28 [label="X[5] <= -0.384\nmse = 0.111\nsamples = 3\nvalue = 4.317", fillcolor="#fefaf7"] ;
20 -> 28 ;
29 [label="mse = 0.003\nsamples = 2\nvalue = 4.55", fillcolor="#fefaf7"] ;
28 -> 29 ;
30 [label="mse = 0.0\nsamples = 1\nvalue = 3.85", fillcolor="#fefbf8"] ;
28 -> 30 ;
31 [label="X[4] <= 0.347\nmse = 1.455\nsamples = 100\nvalue = 6.986", fillcolor="#fdf6f1"] ;
5 -> 31 ;
32 [label="X[4] <= -0.3\nmse = 1.378\nsamples = 80\nvalue = 6.738", fillcolor="#fdf6f1"] ;
31 -> 32 ;
33 [label="X[12] <= 0.5\nmse = 0.894\nsamples = 31\nvalue = 7.517", fillcolor="#fdf5f0"] ;
32 -> 33 ;
34 [label="X[2] <= -0.22\nmse = 0.66\nsamples = 21\nvalue = 7.148", fillcolor="#fdf6f1"] ;
33 -> 34 ;
35 [label="X[1] <= 1.605\nmse = 0.517\nsamples = 6\nvalue = 8.073", fillcolor="#fdf4ee"] ;
34 -> 35 ;
36 [label="X[1] <= -0.52\nmse = 0.094\nsamples = 4\nvalue = 8.55", fillcolor="#fdf4ed"] ;
35 -> 36 ;
37 [label="mse = 0.0\nsamples = 1\nvalue = 8.02", fillcolor="#fdf4ee"] ;
36 -> 37 ;
38 [label="X[5] <= -0.576\nmse = 0.0\nsamples = 3\nvalue = 8.727", fillcolor="#fdf3ed"] ;
36 -> 38 ;
39 [label="mse = 0.0\nsamples = 1\nvalue = 8.7", fillcolor="#fdf3ed"] ;
38 -> 39 ;
40 [label="mse = -0.0\nsamples = 2\nvalue = 8.74", fillcolor="#fdf3ed"] ;
38 -> 40 ;
41 [label="mse = 0.0\nsamples = 2\nvalue = 7.12", fillcolor="#fdf6f1"] ;
35 -> 41 ;
42 [label="X[1] <= 0.816\nmse = 0.237\nsamples = 15\nvalue = 6.777", fillcolor="#fdf6f1"] ;
34 -> 42 ;
43 [label="X[1] <= -0.299\nmse = 0.086\nsamples = 13\nvalue = 6.935", fillcolor="#fdf6f1"] ;
42 -> 43 ;
44 [label="X[3] <= -0.708\nmse = 0.033\nsamples = 6\nvalue = 7.168", fillcolor="#fdf6f0"] ;
43 -> 44 ;
45 [label="X[5] <= -1.24\nmse = 0.024\nsamples = 3\nvalue = 7.033", fillcolor="#fdf6f1"] ;
44 -> 45 ;
46 [label="mse = 0.0\nsamples = 1\nvalue = 7.25", fillcolor="#fdf6f0"] ;
45 -> 46 ;
47 [label="mse = 0.001\nsamples = 2\nvalue = 6.925", fillcolor="#fdf6f1"] ;
45 -> 47 ;
48 [label="X[11] <= 0.5\nmse = 0.006\nsamples = 3\nvalue = 7.303", fillcolor="#fdf6f0"] ;
44 -> 48 ;
49 [label="mse = 0.0\nsamples = 1\nvalue = 7.41", fillcolor="#fdf5f0"] ;
48 -> 49 ;
50 [label="mse = -0.0\nsamples = 2\nvalue = 7.25", fillcolor="#fdf6f0"] ;
48 -> 50 ;
51 [label="X[18] <= 0.5\nmse = 0.044\nsamples = 7\nvalue = 6.736", fillcolor="#fdf6f1"] ;
43 -> 51 ;
52 [label="X[35] <= 0.5\nmse = 0.006\nsamples = 6\nvalue = 6.817", fillcolor="#fdf6f1"] ;
51 -> 52 ;
53 [label="X[3] <= -0.708\nmse = 0.001\nsamples = 5\nvalue = 6.848", fillcolor="#fdf6f1"] ;
52 -> 53 ;
54 [label="mse = 0.0\nsamples = 1\nvalue = 6.9", fillcolor="#fdf6f1"] ;
53 -> 54 ;
55 [label="X[9] <= 0.5\nmse = 0.0\nsamples = 4\nvalue = 6.835", fillcolor="#fdf6f1"] ;
53 -> 55 ;
56 [label="mse = 0.0\nsamples = 2\nvalue = 6.82", fillcolor="#fdf6f1"] ;
55 -> 56 ;
57 [label="mse = 0.0\nsamples = 2\nvalue = 6.85", fillcolor="#fdf6f1"] ;
55 -> 57 ;
58 [label="mse = -0.0\nsamples = 1\nvalue = 6.66", fillcolor="#fdf7f2"] ;
52 -> 58 ;
59 [label="mse = 0.0\nsamples = 1\nvalue = 6.25", fillcolor="#fdf7f3"] ;
51 -> 59 ;
60 [label="mse = 0.002\nsamples = 2\nvalue = 5.75", fillcolor="#fef8f4"] ;
42 -> 60 ;
61 [label="X[1] <= -0.926\nmse = 0.495\nsamples = 10\nvalue = 8.294", fillcolor="#fdf4ee"] ;
33 -> 61 ;
62 [label="mse = 0.0\nsamples = 1\nvalue = 9.95", fillcolor="#fcf2ea"] ;
61 -> 62 ;
63 [label="X[5] <= -0.429\nmse = 0.212\nsamples = 9\nvalue = 8.11", fillcolor="#fdf4ee"] ;
61 -> 63 ;
64 [label="X[1] <= 0.433\nmse = 0.23\nsamples = 6\nvalue = 8.28", fillcolor="#fdf4ee"] ;
63 -> 64 ;
65 [label="X[5] <= -0.65\nmse = 0.1\nsamples = 4\nvalue = 8.548", fillcolor="#fdf4ed"] ;
64 -> 65 ;
66 [label="mse = 0.0\nsamples = 1\nvalue = 8.0", fillcolor="#fdf4ee"] ;
65 -> 66 ;
67 [label="X[1] <= -0.012\nmse = 0.0\nsamples = 3\nvalue = 8.73", fillcolor="#fdf3ed"] ;
65 -> 67 ;
68 [label="mse = 0.0\nsamples = 1\nvalue = 8.7", fillcolor="#fdf3ed"] ;
67 -> 68 ;
69 [label="mse = 0.0\nsamples = 2\nvalue = 8.745", fillcolor="#fdf3ed"] ;
67 -> 69 ;
70 [label="mse = 0.06\nsamples = 2\nvalue = 7.745", fillcolor="#fdf5ef"] ;
64 -> 70 ;
71 [label="X[1] <= -0.281\nmse = 0.002\nsamples = 3\nvalue = 7.77", fillcolor="#fdf5ef"] ;
63 -> 71 ;
72 [label="mse = 0.0\nsamples = 1\nvalue = 7.71", fillcolor="#fdf5ef"] ;
71 -> 72 ;
73 [label="mse = 0.0\nsamples = 2\nvalue = 7.8", fillcolor="#fdf5ef"] ;
71 -> 73 ;
74 [label="X[5] <= -0.768\nmse = 1.057\nsamples = 49\nvalue = 6.245", fillcolor="#fdf7f3"] ;
32 -> 74 ;
75 [label="X[5] <= -1.55\nmse = 0.691\nsamples = 24\nvalue = 6.88", fillcolor="#fdf6f1"] ;
74 -> 75 ;
76 [label="mse = 0.0\nsamples = 1\nvalue = 8.95", fillcolor="#fdf3ec"] ;
75 -> 76 ;
77 [label="X[4] <= 0.328\nmse = 0.527\nsamples = 23\nvalue = 6.79", fillcolor="#fdf6f1"] ;
75 -> 77 ;
78 [label="X[2] <= 0.622\nmse = 0.475\nsamples = 20\nvalue = 6.909", fillcolor="#fdf6f1"] ;
77 -> 78 ;
79 [label="mse = 0.212\nsamples = 2\nvalue = 7.99", fillcolor="#fdf5ef"] ;
78 -> 79 ;
80 [label="X[2] <= 0.809\nmse = 0.36\nsamples = 18\nvalue = 6.789", fillcolor="#fdf6f1"] ;
78 -> 80 ;
81 [label="X[2] <= 0.765\nmse = 0.27\nsamples = 17\nvalue = 6.868", fillcolor="#fdf6f1"] ;
80 -> 81 ;
82 [label="X[4] <= 0.293\nmse = 0.175\nsamples = 9\nvalue = 6.504", fillcolor="#fdf7f2"] ;
81 -> 82 ;
83 [label="X[2] <= 0.701\nmse = 0.081\nsamples = 3\nvalue = 6.127", fillcolor="#fdf7f3"] ;
82 -> 83 ;
84 [label="mse = 0.0\nsamples = 1\nvalue = 5.75", fillcolor="#fef8f4"] ;
83 -> 84 ;
85 [label="mse = 0.016\nsamples = 2\nvalue = 6.315", fillcolor="#fdf7f2"] ;
83 -> 85 ;
86 [label="X[19] <= 0.5\nmse = 0.115\nsamples = 6\nvalue = 6.693", fillcolor="#fdf6f2"] ;
82 -> 86 ;
87 [label="X[1] <= -1.143\nmse = 0.017\nsamples = 3\nvalue = 7.003", fillcolor="#fdf6f1"] ;
86 -> 87 ;
88 [label="mse = 0.003\nsamples = 2\nvalue = 7.09", fillcolor="#fdf6f1"] ;
87 -> 88 ;
89 [label="mse = 0.0\nsamples = 1\nvalue = 6.83", fillcolor="#fdf6f1"] ;
87 -> 89 ;
90 [label="X[1] <= -1.086\nmse = 0.022\nsamples = 3\nvalue = 6.383", fillcolor="#fdf7f2"] ;
86 -> 90 ;
91 [label="mse = 0.012\nsamples = 2\nvalue = 6.3", fillcolor="#fdf7f3"] ;
90 -> 91 ;
92 [label="mse = -0.0\nsamples = 1\nvalue = 6.55", fillcolor="#fdf7f2"] ;
90 -> 92 ;
93 [label="X[5] <= -1.064\nmse = 0.06\nsamples = 8\nvalue = 7.276", fillcolor="#fdf6f0"] ;
81 -> 93 ;
94 [label="X[1] <= -0.692\nmse = 0.029\nsamples = 5\nvalue = 7.43", fillcolor="#fdf5f0"] ;
93 -> 94 ;
95 [label="X[1] <= -1.171\nmse = 0.025\nsamples = 3\nvalue = 7.333", fillcolor="#fdf6f0"] ;
94 -> 95 ;
96 [label="mse = 0.0\nsamples = 1\nvalue = 7.55", fillcolor="#fdf5f0"] ;
95 -> 96 ;
97 [label="mse = 0.002\nsamples = 2\nvalue = 7.225", fillcolor="#fdf6f0"] ;
95 -> 97 ;
98 [label="mse = 0.0\nsamples = 2\nvalue = 7.575", fillcolor="#fdf5f0"] ;
94 -> 98 ;
99 [label="X[1] <= -1.056\nmse = 0.007\nsamples = 3\nvalue = 7.02", fillcolor="#fdf6f1"] ;
93 -> 99 ;
100 [label="mse = 0.0\nsamples = 2\nvalue = 6.96", fillcolor="#fdf6f1"] ;
99 -> 100 ;
101 [label="mse = 0.0\nsamples = 1\nvalue = 7.14", fillcolor="#fdf6f1"] ;
99 -> 101 ;
102 [label="mse = -0.0\nsamples = 1\nvalue = 5.45", fillcolor="#fef8f5"] ;
80 -> 102 ;
103 [label="X[1] <= -0.299\nmse = 0.147\nsamples = 3\nvalue = 5.997", fillcolor="#fdf8f3"] ;
77 -> 103 ;
104 [label="mse = 0.031\nsamples = 2\nvalue = 5.745", fillcolor="#fef8f4"] ;
103 -> 104 ;
105 [label="mse = 0.0\nsamples = 1\nvalue = 6.5", fillcolor="#fdf7f2"] ;
103 -> 105 ;
106 [label="X[1] <= -0.393\nmse = 0.65\nsamples = 25\nvalue = 5.636", fillcolor="#fef8f4"] ;
74 -> 106 ;
107 [label="X[4] <= 0.293\nmse = 0.325\nsamples = 10\nvalue = 4.992", fillcolor="#fef9f6"] ;
106 -> 107 ;
108 [label="X[1] <= -0.719\nmse = 0.128\nsamples = 3\nvalue = 4.42", fillcolor="#fefaf7"] ;
107 -> 108 ;
109 [label="mse = 0.005\nsamples = 2\nvalue = 4.67", fillcolor="#fef9f6"] ;
108 -> 109 ;
110 [label="mse = 0.0\nsamples = 1\nvalue = 3.92", fillcolor="#fefbf8"] ;
108 -> 110 ;
111 [label="X[5] <= -0.442\nmse = 0.209\nsamples = 7\nvalue = 5.237", fillcolor="#fef9f5"] ;
107 -> 111 ;
112 [label="X[2] <= 0.46\nmse = 0.046\nsamples = 5\nvalue = 5.458", fillcolor="#fef8f4"] ;
111 -> 112 ;
113 [label="mse = 0.008\nsamples = 2\nvalue = 5.69", fillcolor="#fef8f4"] ;
112 -> 113 ;
114 [label="X[43] <= 0.5\nmse = 0.011\nsamples = 3\nvalue = 5.303", fillcolor="#fef9f5"] ;
112 -> 114 ;
115 [label="mse = 0.0\nsamples = 1\nvalue = 5.45", fillcolor="#fef8f5"] ;
114 -> 115 ;
116 [label="mse = 0.0\nsamples = 2\nvalue = 5.23", fillcolor="#fef9f5"] ;
114 -> 116 ;
117 [label="mse = 0.189\nsamples = 2\nvalue = 4.685", fillcolor="#fef9f6"] ;
111 -> 117 ;
118 [label="X[1] <= 0.327\nmse = 0.406\nsamples = 15\nvalue = 6.065", fillcolor="#fdf7f3"] ;
106 -> 118 ;
119 [label="X[1] <= 0.178\nmse = 0.194\nsamples = 10\nvalue = 6.393", fillcolor="#fdf7f2"] ;
118 -> 119 ;
120 [label="X[1] <= -0.079\nmse = 0.192\nsamples = 8\nvalue = 6.494", fillcolor="#fdf7f2"] ;
119 -> 120 ;
121 [label="X[1] <= -0.136\nmse = 0.196\nsamples = 5\nvalue = 6.292", fillcolor="#fdf7f3"] ;
120 -> 121 ;
122 [label="X[5] <= -0.546\nmse = 0.013\nsamples = 3\nvalue = 6.647", fillcolor="#fdf7f2"] ;
121 -> 122 ;
123 [label="mse = 0.001\nsamples = 2\nvalue = 6.725", fillcolor="#fdf6f2"] ;
122 -> 123 ;
124 [label="mse = -0.0\nsamples = 1\nvalue = 6.49", fillcolor="#fdf7f2"] ;
122 -> 124 ;
125 [label="mse = 0.0\nsamples = 2\nvalue = 5.76", fillcolor="#fef8f4"] ;
121 -> 125 ;
126 [label="X[1] <= 0.023\nmse = 0.003\nsamples = 3\nvalue = 6.83", fillcolor="#fdf6f1"] ;
120 -> 126 ;
127 [label="mse = -0.0\nsamples = 2\nvalue = 6.87", fillcolor="#fdf6f1"] ;
126 -> 127 ;
128 [label="mse = 0.0\nsamples = 1\nvalue = 6.75", fillcolor="#fdf6f1"] ;
126 -> 128 ;
129 [label="mse = 0.0\nsamples = 2\nvalue = 5.99", fillcolor="#fdf8f3"] ;
119 -> 129 ;
130 [label="X[5] <= -0.355\nmse = 0.185\nsamples = 5\nvalue = 5.41", fillcolor="#fef8f5"] ;
118 -> 130 ;
131 [label="X[5] <= -0.531\nmse = 0.009\nsamples = 3\nvalue = 5.067", fillcolor="#fef9f5"] ;
130 -> 131 ;
132 [label="mse = 0.0\nsamples = 1\nvalue = 4.93", fillcolor="#fef9f6"] ;
131 -> 132 ;
133 [label="mse = 0.0\nsamples = 2\nvalue = 5.135", fillcolor="#fef9f5"] ;
131 -> 133 ;
134 [label="mse = 0.006\nsamples = 2\nvalue = 5.925", fillcolor="#fdf8f3"] ;
130 -> 134 ;
135 [label="X[2] <= 1.253\nmse = 0.536\nsamples = 20\nvalue = 7.976", fillcolor="#fdf5ef"] ;
31 -> 135 ;
136 [label="X[9] <= 0.5\nmse = 0.263\nsamples = 18\nvalue = 7.796", fillcolor="#fdf5ef"] ;
135 -> 136 ;
137 [label="X[19] <= 0.5\nmse = 0.157\nsamples = 14\nvalue = 7.978", fillcolor="#fdf5ef"] ;
136 -> 137 ;
138 [label="X[2] <= 1.202\nmse = 0.086\nsamples = 6\nvalue = 8.278", fillcolor="#fdf4ee"] ;
137 -> 138 ;
139 [label="X[4] <= 0.373\nmse = 0.048\nsamples = 4\nvalue = 8.442", fillcolor="#fdf4ed"] ;
138 -> 139 ;
140 [label="mse = 0.0\nsamples = 1\nvalue = 8.75", fillcolor="#fdf3ed"] ;
139 -> 140 ;
141 [label="X[5] <= -1.107\nmse = 0.022\nsamples = 3\nvalue = 8.34", fillcolor="#fdf4ee"] ;
139 -> 141 ;
142 [label="mse = 0.004\nsamples = 2\nvalue = 8.44", fillcolor="#fdf4ed"] ;
141 -> 142 ;
143 [label="mse = 0.0\nsamples = 1\nvalue = 8.14", fillcolor="#fdf4ee"] ;
141 -> 143 ;
144 [label="mse = -0.0\nsamples = 2\nvalue = 7.95", fillcolor="#fdf5ef"] ;
138 -> 144 ;
145 [label="X[5] <= -1.801\nmse = 0.091\nsamples = 8\nvalue = 7.752", fillcolor="#fdf5ef"] ;
137 -> 145 ;
146 [label="X[35] <= 0.5\nmse = 0.03\nsamples = 3\nvalue = 8.117", fillcolor="#fdf4ee"] ;
145 -> 146 ;
147 [label="mse = 0.0\nsamples = 2\nvalue = 8.24", fillcolor="#fdf4ee"] ;
146 -> 147 ;
148 [label="mse = -0.0\nsamples = 1\nvalue = 7.87", fillcolor="#fdf5ef"] ;
146 -> 148 ;
149 [label="X[35] <= 0.5\nmse = 0.001\nsamples = 5\nvalue = 7.534", fillcolor="#fdf5f0"] ;
145 -> 149 ;
150 [label="X[2] <= 0.737\nmse = 0.0\nsamples = 3\nvalue = 7.557", fillcolor="#fdf5f0"] ;
149 -> 150 ;
151 [label="mse = 0.0\nsamples = 2\nvalue = 7.56", fillcolor="#fdf5f0"] ;
150 -> 151 ;
152 [label="mse = -0.0\nsamples = 1\nvalue = 7.55", fillcolor="#fdf5f0"] ;
150 -> 152 ;
153 [label="mse = -0.0\nsamples = 2\nvalue = 7.5", fillcolor="#fdf5f0"] ;
149 -> 153 ;
154 [label="X[1] <= -1.052\nmse = 0.116\nsamples = 4\nvalue = 7.16", fillcolor="#fdf6f0"] ;
136 -> 154 ;
155 [label="X[3] <= -0.709\nmse = 0.0\nsamples = 3\nvalue = 6.963", fillcolor="#fdf6f1"] ;
154 -> 155 ;
156 [label="mse = 0.0\nsamples = 1\nvalue = 6.99", fillcolor="#fdf6f1"] ;
155 -> 156 ;
157 [label="mse = 0.0\nsamples = 2\nvalue = 6.95", fillcolor="#fdf6f1"] ;
155 -> 157 ;
158 [label="mse = 0.0\nsamples = 1\nvalue = 7.75", fillcolor="#fdf5ef"] ;
154 -> 158 ;
159 [label="mse = 0.063\nsamples = 2\nvalue = 9.6", fillcolor="#fcf2eb"] ;
135 -> 159 ;
160 [label="X[45] <= 0.5\nmse = 3.713\nsamples = 28\nvalue = 10.197", fillcolor="#fcf1e9"] ;
4 -> 160 ;
161 [label="X[5] <= -1.269\nmse = 1.253\nsamples = 25\nvalue = 9.655", fillcolor="#fcf2eb"] ;
160 -> 161 ;
162 [label="X[3] <= -1.052\nmse = 0.736\nsamples = 10\nvalue = 10.687", fillcolor="#fcf0e8"] ;
161 -> 162 ;
163 [label="X[18] <= 0.5\nmse = 0.262\nsamples = 9\nvalue = 10.451", fillcolor="#fcf1e9"] ;
162 -> 163 ;
164 [label="X[2] <= 0.043\nmse = 0.058\nsamples = 3\nvalue = 9.86", fillcolor="#fcf2ea"] ;
163 -> 164 ;
165 [label="mse = 0.0\nsamples = 1\nvalue = 10.2", fillcolor="#fcf1e9"] ;
164 -> 165 ;
166 [label="mse = -0.0\nsamples = 2\nvalue = 9.69", fillcolor="#fcf2eb"] ;
164 -> 166 ;
167 [label="X[1] <= -1.262\nmse = 0.102\nsamples = 6\nvalue = 10.747", fillcolor="#fcf0e8"] ;
163 -> 167 ;
168 [label="X[5] <= -1.448\nmse = 0.006\nsamples = 3\nvalue = 11.057", fillcolor="#fcf0e7"] ;
167 -> 168 ;
169 [label="mse = -0.0\nsamples = 2\nvalue = 11.11", fillcolor="#fcf0e7"] ;
168 -> 169 ;
170 [label="mse = -0.0\nsamples = 1\nvalue = 10.95", fillcolor="#fcf0e8"] ;
168 -> 170 ;
171 [label="X[15] <= 0.5\nmse = 0.006\nsamples = 3\nvalue = 10.437", fillcolor="#fcf1e9"] ;
167 -> 171 ;
172 [label="mse = 0.0\nsamples = 1\nvalue = 10.33", fillcolor="#fcf1e9"] ;
171 -> 172 ;
173 [label="mse = -0.0\nsamples = 2\nvalue = 10.49", fillcolor="#fcf1e9"] ;
171 -> 173 ;
174 [label="mse = -0.0\nsamples = 1\nvalue = 12.81", fillcolor="#fbede3"] ;
162 -> 174 ;
175 [label="X[1] <= 1.336\nmse = 0.414\nsamples = 15\nvalue = 8.967", fillcolor="#fdf3ec"] ;
161 -> 175 ;
176 [label="X[2] <= -0.189\nmse = 0.309\nsamples = 13\nvalue = 9.117", fillcolor="#fcf3ec"] ;
175 -> 176 ;
177 [label="mse = 0.0\nsamples = 1\nvalue = 7.98", fillcolor="#fdf5ef"] ;
176 -> 177 ;
178 [label="X[1] <= 0.42\nmse = 0.218\nsamples = 12\nvalue = 9.212", fillcolor="#fcf3ec"] ;
176 -> 178 ;
179 [label="X[4] <= 0.799\nmse = 0.192\nsamples = 10\nvalue = 9.319", fillcolor="#fcf3eb"] ;
178 -> 179 ;
180 [label="X[1] <= -0.033\nmse = 0.035\nsamples = 8\nvalue = 9.224", fillcolor="#fcf3ec"] ;
179 -> 180 ;
181 [label="X[5] <= -1.064\nmse = 0.013\nsamples = 7\nvalue = 9.166", fillcolor="#fcf3ec"] ;
180 -> 181 ;
182 [label="X[30] <= 0.5\nmse = 0.015\nsamples = 3\nvalue = 9.077", fillcolor="#fdf3ec"] ;
181 -> 182 ;
183 [label="mse = -0.0\nsamples = 2\nvalue = 8.99", fillcolor="#fdf3ec"] ;
182 -> 183 ;
184 [label="mse = 0.0\nsamples = 1\nvalue = 9.25", fillcolor="#fcf3ec"] ;
182 -> 184 ;
185 [label="X[1] <= -0.905\nmse = 0.0\nsamples = 4\nvalue = 9.232", fillcolor="#fcf3ec"] ;
181 -> 185 ;
186 [label="mse = 0.0\nsamples = 1\nvalue = 9.2", fillcolor="#fcf3ec"] ;
185 -> 186 ;
187 [label="X[1] <= -0.597\nmse = 0.0\nsamples = 3\nvalue = 9.243", fillcolor="#fcf3ec"] ;
185 -> 187 ;
188 [label="mse = 0.0\nsamples = 1\nvalue = 9.25", fillcolor="#fcf3ec"] ;
187 -> 188 ;
189 [label="mse = -0.0\nsamples = 2\nvalue = 9.24", fillcolor="#fcf3ec"] ;
187 -> 189 ;
190 [label="mse = 0.0\nsamples = 1\nvalue = 9.63", fillcolor="#fcf2eb"] ;
180 -> 190 ;
191 [label="mse = 0.64\nsamples = 2\nvalue = 9.7", fillcolor="#fcf2ea"] ;
179 -> 191 ;
192 [label="mse = 0.0\nsamples = 2\nvalue = 8.675", fillcolor="#fdf3ed"] ;
178 -> 192 ;
193 [label="mse = 0.0\nsamples = 2\nvalue = 7.99", fillcolor="#fdf5ef"] ;
175 -> 193 ;
194 [label="X[19] <= 0.5\nmse = 1.334\nsamples = 3\nvalue = 14.717", fillcolor="#fbeadf"] ;
160 -> 194 ;
195 [label="mse = 0.0\nsamples = 1\nvalue = 16.35", fillcolor="#fae8db"] ;
194 -> 195 ;
196 [label="mse = -0.0\nsamples = 2\nvalue = 13.9", fillcolor="#fbece1"] ;
194 -> 196 ;
197 [label="X[1] <= -0.351\nmse = 14.256\nsamples = 104\nvalue = 10.695", fillcolor="#fcf0e8"] ;
3 -> 197 ;
198 [label="X[5] <= -1.757\nmse = 15.267\nsamples = 61\nvalue = 12.295", fillcolor="#fceee4"] ;
197 -> 198 ;
199 [label="X[1] <= -1.475\nmse = 5.72\nsamples = 6\nvalue = 17.693", fillcolor="#fae6d8"] ;
198 -> 199 ;
200 [label="X[1] <= -1.574\nmse = 0.38\nsamples = 4\nvalue = 16.04", fillcolor="#fae8dc"] ;
199 -> 200 ;
201 [label="mse = 0.0\nsamples = 1\nvalue = 16.95", fillcolor="#fae7d9"] ;
200 -> 201 ;
202 [label="X[2] <= -0.1\nmse = 0.139\nsamples = 3\nvalue = 15.737", fillcolor="#fae9dc"] ;
200 -> 202 ;
203 [label="mse = 0.0\nsamples = 1\nvalue = 15.21", fillcolor="#fbeade"] ;
202 -> 203 ;
204 [label="mse = 0.0\nsamples = 2\nvalue = 16.0", fillcolor="#fae8dc"] ;
202 -> 204 ;
205 [label="mse = 0.0\nsamples = 2\nvalue = 21.0", fillcolor="#f9e1d0"] ;
199 -> 205 ;
206 [label="X[19] <= 0.5\nmse = 12.781\nsamples = 55\nvalue = 11.706", fillcolor="#fcefe6"] ;
198 -> 206 ;
207 [label="X[41] <= 0.5\nmse = 13.232\nsamples = 29\nvalue = 13.14", fillcolor="#fbede2"] ;
206 -> 207 ;
208 [label="X[2] <= -0.26\nmse = 10.562\nsamples = 26\nvalue = 13.795", fillcolor="#fbece1"] ;
207 -> 208 ;
209 [label="X[42] <= 0.5\nmse = 6.624\nsamples = 11\nvalue = 16.032", fillcolor="#fae8dc"] ;
208 -> 209 ;
210 [label="X[5] <= -0.355\nmse = 3.997\nsamples = 10\nvalue = 15.485", fillcolor="#fbe9dd"] ;
209 -> 210 ;
211 [label="X[1] <= -1.254\nmse = 2.013\nsamples = 9\nvalue = 15.978", fillcolor="#fae9dc"] ;
210 -> 211 ;
212 [label="mse = 0.0\nsamples = 2\nvalue = 18.25", fillcolor="#fae5d6"] ;
211 -> 212 ;
213 [label="X[2] <= -1.402\nmse = 0.691\nsamples = 7\nvalue = 15.329", fillcolor="#fbeadd"] ;
211 -> 213 ;
214 [label="mse = 0.0\nsamples = 2\nvalue = 16.0", fillcolor="#fae8dc"] ;
213 -> 214 ;
215 [label="X[5] <= -1.064\nmse = 0.715\nsamples = 5\nvalue = 15.06", fillcolor="#fbeade"] ;
213 -> 215 ;
216 [label="mse = 0.331\nsamples = 2\nvalue = 15.825", fillcolor="#fae9dc"] ;
215 -> 216 ;
217 [label="X[33] <= 0.5\nmse = 0.322\nsamples = 3\nvalue = 14.55", fillcolor="#fbebdf"] ;
215 -> 217 ;
218 [label="mse = 0.003\nsamples = 2\nvalue = 14.95", fillcolor="#fbeade"] ;
217 -> 218 ;
219 [label="mse = 0.0\nsamples = 1\nvalue = 13.75", fillcolor="#fbece1"] ;
217 -> 219 ;
220 [label="mse = -0.0\nsamples = 1\nvalue = 11.05", fillcolor="#fcf0e7"] ;
210 -> 220 ;
221 [label="mse = 0.0\nsamples = 1\nvalue = 21.5", fillcolor="#f9e0cf"] ;
209 -> 221 ;
222 [label="X[13] <= 0.5\nmse = 7.091\nsamples = 15\nvalue = 12.155", fillcolor="#fceee5"] ;
208 -> 222 ;
223 [label="X[0] <= 0.498\nmse = 6.125\nsamples = 3\nvalue = 16.5", fillcolor="#fae8da"] ;
222 -> 223 ;
224 [label="mse = 0.0\nsamples = 2\nvalue = 14.75", fillcolor="#fbeadf"] ;
223 -> 224 ;
225 [label="mse = 0.0\nsamples = 1\nvalue = 20.0", fillcolor="#f9e2d2"] ;
223 -> 225 ;
226 [label="X[35] <= 0.5\nmse = 1.432\nsamples = 12\nvalue = 11.068", fillcolor="#fcf0e7"] ;
222 -> 226 ;
227 [label="X[4] <= 0.769\nmse = 0.379\nsamples = 9\nvalue = 11.633", fillcolor="#fcefe6"] ;
226 -> 227 ;
228 [label="X[2] <= -0.1\nmse = 0.088\nsamples = 7\nvalue = 11.364", fillcolor="#fcefe7"] ;
227 -> 228 ;
229 [label="mse = 0.0\nsamples = 2\nvalue = 10.95", fillcolor="#fcf0e8"] ;
228 -> 229 ;
230 [label="X[26] <= 0.5\nmse = 0.028\nsamples = 5\nvalue = 11.53", fillcolor="#fcefe6"] ;
228 -> 230 ;
231 [label="X[4] <= -0.043\nmse = 0.003\nsamples = 4\nvalue = 11.45", fillcolor="#fcefe6"] ;
230 -> 231 ;
232 [label="mse = 0.0\nsamples = 2\nvalue = 11.5", fillcolor="#fcefe6"] ;
231 -> 232 ;
233 [label="mse = 0.0\nsamples = 2\nvalue = 11.4", fillcolor="#fcefe6"] ;
231 -> 233 ;
234 [label="mse = -0.0\nsamples = 1\nvalue = 11.85", fillcolor="#fcefe5"] ;
230 -> 234 ;
235 [label="mse = 0.255\nsamples = 2\nvalue = 12.575", fillcolor="#fbeee4"] ;
227 -> 235 ;
236 [label="X[15] <= 0.5\nmse = 0.761\nsamples = 3\nvalue = 9.373", fillcolor="#fcf2eb"] ;
226 -> 236 ;
237 [label="mse = 0.0\nsamples = 1\nvalue = 8.14", fillcolor="#fdf4ee"] ;
236 -> 237 ;
238 [label="mse = -0.0\nsamples = 2\nvalue = 9.99", fillcolor="#fcf2ea"] ;
236 -> 238 ;
239 [label="X[2] <= -0.967\nmse = 0.467\nsamples = 3\nvalue = 7.467", fillcolor="#fdf5f0"] ;
207 -> 239 ;
240 [label="mse = 0.0\nsamples = 1\nvalue = 6.5", fillcolor="#fdf7f2"] ;
239 -> 240 ;
241 [label="mse = 0.0\nsamples = 2\nvalue = 7.95", fillcolor="#fdf5ef"] ;
239 -> 241 ;
242 [label="X[44] <= 0.5\nmse = 7.422\nsamples = 26\nvalue = 10.105", fillcolor="#fcf1ea"] ;
206 -> 242 ;
243 [label="X[30] <= 0.5\nmse = 3.728\nsamples = 25\nvalue = 9.714", fillcolor="#fcf2ea"] ;
242 -> 243 ;
244 [label="X[5] <= -1.521\nmse = 2.87\nsamples = 23\nvalue = 9.406", fillcolor="#fcf2eb"] ;
243 -> 244 ;
245 [label="X[9] <= 0.5\nmse = 1.021\nsamples = 6\nvalue = 11.517", fillcolor="#fcefe6"] ;
244 -> 245 ;
246 [label="mse = 0.006\nsamples = 2\nvalue = 12.825", fillcolor="#fbede3"] ;
245 -> 246 ;
247 [label="X[2] <= 0.585\nmse = 0.245\nsamples = 4\nvalue = 10.862", fillcolor="#fcf0e8"] ;
245 -> 247 ;
248 [label="mse = 0.0\nsamples = 2\nvalue = 11.35", fillcolor="#fcefe7"] ;
247 -> 248 ;
249 [label="mse = 0.016\nsamples = 2\nvalue = 10.375", fillcolor="#fcf1e9"] ;
247 -> 249 ;
250 [label="X[3] <= -0.331\nmse = 1.395\nsamples = 17\nvalue = 8.661", fillcolor="#fdf4ed"] ;
244 -> 250 ;
251 [label="X[35] <= 0.5\nmse = 0.102\nsamples = 3\nvalue = 7.047", fillcolor="#fdf6f1"] ;
250 -> 251 ;
252 [label="mse = 0.0\nsamples = 1\nvalue = 7.49", fillcolor="#fdf5f0"] ;
251 -> 252 ;
253 [label="mse = 0.006\nsamples = 2\nvalue = 6.825", fillcolor="#fdf6f1"] ;
251 -> 253 ;
254 [label="X[0] <= 0.498\nmse = 0.994\nsamples = 14\nvalue = 9.007", fillcolor="#fdf3ec"] ;
250 -> 254 ;
255 [label="X[1] <= -0.685\nmse = 0.703\nsamples = 10\nvalue = 8.611", fillcolor="#fdf4ed"] ;
254 -> 255 ;
256 [label="X[5] <= -1.284\nmse = 0.318\nsamples = 8\nvalue = 8.92", fillcolor="#fdf3ec"] ;
255 -> 256 ;
257 [label="X[4] <= 0.598\nmse = 0.125\nsamples = 3\nvalue = 9.49", fillcolor="#fcf2eb"] ;
256 -> 257 ;
258 [label="mse = 0.0\nsamples = 2\nvalue = 9.74", fillcolor="#fcf2ea"] ;
257 -> 258 ;
259 [label="mse = -0.0\nsamples = 1\nvalue = 8.99", fillcolor="#fdf3ec"] ;
257 -> 259 ;
260 [label="X[4] <= -0.764\nmse = 0.122\nsamples = 5\nvalue = 8.578", fillcolor="#fdf4ed"] ;
256 -> 260 ;
261 [label="mse = 0.0\nsamples = 1\nvalue = 7.89", fillcolor="#fdf5ef"] ;
260 -> 261 ;
262 [label="X[2] <= 0.04\nmse = 0.005\nsamples = 4\nvalue = 8.75", fillcolor="#fdf3ed"] ;
260 -> 262 ;
263 [label="mse = 0.0\nsamples = 1\nvalue = 8.65", fillcolor="#fdf4ed"] ;
262 -> 263 ;
264 [label="X[4] <= -0.057\nmse = 0.002\nsamples = 3\nvalue = 8.783", fillcolor="#fdf3ed"] ;
262 -> 264 ;
265 [label="mse = 0.0\nsamples = 2\nvalue = 8.75", fillcolor="#fdf3ed"] ;
264 -> 265 ;
266 [label="mse = -0.0\nsamples = 1\nvalue = 8.85", fillcolor="#fdf3ec"] ;
264 -> 266 ;
267 [label="mse = 0.331\nsamples = 2\nvalue = 7.375", fillcolor="#fdf5f0"] ;
255 -> 267 ;
268 [label="X[1] <= -0.729\nmse = 0.349\nsamples = 4\nvalue = 9.998", fillcolor="#fcf2ea"] ;
254 -> 268 ;
269 [label="X[1] <= -1.035\nmse = 0.014\nsamples = 3\nvalue = 10.333", fillcolor="#fcf1e9"] ;
268 -> 269 ;
270 [label="mse = 0.0\nsamples = 2\nvalue = 10.25", fillcolor="#fcf1e9"] ;
269 -> 270 ;
271 [label="mse = 0.0\nsamples = 1\nvalue = 10.5", fillcolor="#fcf1e9"] ;
269 -> 271 ;
272 [label="mse = -0.0\nsamples = 1\nvalue = 8.99", fillcolor="#fdf3ec"] ;
268 -> 272 ;
273 [label="mse = 0.0\nsamples = 2\nvalue = 13.25", fillcolor="#fbede2"] ;
243 -> 273 ;
274 [label="mse = -0.0\nsamples = 1\nvalue = 19.9", fillcolor="#f9e3d2"] ;
242 -> 274 ;
275 [label="X[3] <= -0.425\nmse = 4.046\nsamples = 43\nvalue = 8.426", fillcolor="#fdf4ed"] ;
197 -> 275 ;
276 [label="mse = 0.0\nsamples = 2\nvalue = 13.99", fillcolor="#fbece0"] ;
275 -> 276 ;
277 [label="X[26] <= 0.5\nmse = 2.659\nsamples = 41\nvalue = 8.155", fillcolor="#fdf4ee"] ;
275 -> 277 ;
278 [label="X[4] <= 0.697\nmse = 1.855\nsamples = 31\nvalue = 7.59", fillcolor="#fdf5ef"] ;
277 -> 278 ;
279 [label="X[3] <= -0.194\nmse = 1.279\nsamples = 28\nvalue = 7.341", fillcolor="#fdf5f0"] ;
278 -> 279 ;
280 [label="X[4] <= 0.662\nmse = 0.797\nsamples = 19\nvalue = 7.759", fillcolor="#fdf5ef"] ;
279 -> 280 ;
281 [label="X[5] <= -0.635\nmse = 0.55\nsamples = 18\nvalue = 7.635", fillcolor="#fdf5ef"] ;
280 -> 281 ;
282 [label="X[4] <= -0.049\nmse = 0.681\nsamples = 6\nvalue = 7.088", fillcolor="#fdf6f1"] ;
281 -> 282 ;
283 [label="X[34] <= 0.5\nmse = 0.243\nsamples = 4\nvalue = 6.582", fillcolor="#fdf7f2"] ;
282 -> 283 ;
284 [label="X[3] <= -0.226\nmse = 0.016\nsamples = 3\nvalue = 6.86", fillcolor="#fdf6f1"] ;
283 -> 284 ;
285 [label="mse = 0.0\nsamples = 1\nvalue = 6.68", fillcolor="#fdf6f2"] ;
284 -> 285 ;
286 [label="mse = 0.0\nsamples = 2\nvalue = 6.95", fillcolor="#fdf6f1"] ;
284 -> 286 ;
287 [label="mse = 0.0\nsamples = 1\nvalue = 5.75", fillcolor="#fef8f4"] ;
283 -> 287 ;
288 [label="mse = 0.023\nsamples = 2\nvalue = 8.1", fillcolor="#fdf4ee"] ;
282 -> 288 ;
289 [label="X[2] <= 0.259\nmse = 0.26\nsamples = 12\nvalue = 7.908", fillcolor="#fdf5ef"] ;
281 -> 289 ;
290 [label="mse = 0.06\nsamples = 2\nvalue = 8.745", fillcolor="#fdf3ed"] ;
289 -> 290 ;
291 [label="X[1] <= -0.209\nmse = 0.132\nsamples = 10\nvalue = 7.741", fillcolor="#fdf5ef"] ;
289 -> 291 ;
292 [label="mse = 0.0\nsamples = 2\nvalue = 8.29", fillcolor="#fdf4ee"] ;
291 -> 292 ;
293 [label="X[4] <= -0.061\nmse = 0.07\nsamples = 8\nvalue = 7.604", fillcolor="#fdf5ef"] ;
291 -> 293 ;
294 [label="X[41] <= 0.5\nmse = 0.002\nsamples = 4\nvalue = 7.848", fillcolor="#fdf5ef"] ;
293 -> 294 ;
295 [label="mse = 0.0\nsamples = 2\nvalue = 7.895", fillcolor="#fdf5ef"] ;
294 -> 295 ;
296 [label="mse = -0.0\nsamples = 2\nvalue = 7.8", fillcolor="#fdf5ef"] ;
294 -> 296 ;
297 [label="X[12] <= 0.5\nmse = 0.02\nsamples = 4\nvalue = 7.36", fillcolor="#fdf5f0"] ;
293 -> 297 ;
298 [label="mse = 0.0\nsamples = 2\nvalue = 7.5", fillcolor="#fdf5f0"] ;
297 -> 298 ;
299 [label="mse = 0.0\nsamples = 2\nvalue = 7.22", fillcolor="#fdf6f0"] ;
297 -> 299 ;
300 [label="mse = -0.0\nsamples = 1\nvalue = 9.99", fillcolor="#fcf2ea"] ;
280 -> 300 ;
301 [label="X[4] <= 0.636\nmse = 1.15\nsamples = 9\nvalue = 6.46", fillcolor="#fdf7f2"] ;
279 -> 301 ;
302 [label="X[1] <= 2.356\nmse = 0.726\nsamples = 8\nvalue = 6.711", fillcolor="#fdf6f2"] ;
301 -> 302 ;
303 [label="X[1] <= 0.264\nmse = 0.337\nsamples = 6\nvalue = 7.108", fillcolor="#fdf6f1"] ;
302 -> 303 ;
304 [label="X[1] <= -0.306\nmse = 0.258\nsamples = 4\nvalue = 6.822", fillcolor="#fdf6f1"] ;
303 -> 304 ;
305 [label="mse = 0.0\nsamples = 1\nvalue = 7.64", fillcolor="#fdf5ef"] ;
304 -> 305 ;
306 [label="X[2] <= 0.58\nmse = 0.047\nsamples = 3\nvalue = 6.55", fillcolor="#fdf7f2"] ;
304 -> 306 ;
307 [label="mse = 0.0\nsamples = 1\nvalue = 6.25", fillcolor="#fdf7f3"] ;
306 -> 307 ;
308 [label="mse = 0.003\nsamples = 2\nvalue = 6.7", fillcolor="#fdf6f2"] ;
306 -> 308 ;
309 [label="mse = 0.005\nsamples = 2\nvalue = 7.68", fillcolor="#fdf5ef"] ;
303 -> 309 ;
310 [label="mse = 0.0\nsamples = 2\nvalue = 5.52", fillcolor="#fef8f4"] ;
302 -> 310 ;
311 [label="mse = -0.0\nsamples = 1\nvalue = 4.45", fillcolor="#fefaf7"] ;
301 -> 311 ;
312 [label="X[1] <= 0.322\nmse = 1.255\nsamples = 3\nvalue = 9.913", fillcolor="#fcf2ea"] ;
278 -> 312 ;
313 [label="mse = 0.0\nsamples = 1\nvalue = 8.5", fillcolor="#fdf4ed"] ;
312 -> 313 ;
314 [label="mse = 0.384\nsamples = 2\nvalue = 10.62", fillcolor="#fcf1e8"] ;
312 -> 314 ;
315 [label="X[1] <= 2.017\nmse = 1.107\nsamples = 10\nvalue = 9.904", fillcolor="#fcf2ea"] ;
277 -> 315 ;
316 [label="X[5] <= -0.325\nmse = 0.63\nsamples = 9\nvalue = 10.149", fillcolor="#fcf1e9"] ;
315 -> 316 ;
317 [label="X[9] <= 0.5\nmse = 0.199\nsamples = 7\nvalue = 10.449", fillcolor="#fcf1e9"] ;
316 -> 317 ;
318 [label="X[1] <= 0.162\nmse = 0.057\nsamples = 6\nvalue = 10.607", fillcolor="#fcf1e8"] ;
317 -> 318 ;
319 [label="mse = 0.0\nsamples = 2\nvalue = 10.27", fillcolor="#fcf1e9"] ;
318 -> 319 ;
320 [label="X[12] <= 0.5\nmse = 0.001\nsamples = 4\nvalue = 10.775", fillcolor="#fcf0e8"] ;
318 -> 320 ;
321 [label="mse = 0.0\nsamples = 2\nvalue = 10.76", fillcolor="#fcf0e8"] ;
320 -> 321 ;
322 [label="mse = 0.002\nsamples = 2\nvalue = 10.79", fillcolor="#fcf0e8"] ;
320 -> 322 ;
323 [label="mse = 0.0\nsamples = 1\nvalue = 9.5", fillcolor="#fcf2eb"] ;
317 -> 323 ;
324 [label="mse = 0.722\nsamples = 2\nvalue = 9.1", fillcolor="#fcf3ec"] ;
316 -> 324 ;
325 [label="mse = 0.0\nsamples = 1\nvalue = 7.7", fillcolor="#fdf5ef"] ;
315 -> 325 ;
326 [label="X[3] <= -0.708\nmse = 3.821\nsamples = 446\nvalue = 5.247", fillcolor="#fef9f5"] ;
2 -> 326 ;
327 [label="X[5] <= 1.372\nmse = 1.464\nsamples = 221\nvalue = 4.227", fillcolor="#fefaf7"] ;
326 -> 327 ;
328 [label="X[5] <= 0.575\nmse = 1.042\nsamples = 170\nvalue = 4.632", fillcolor="#fefaf6"] ;
327 -> 328 ;
329 [label="X[3] <= -0.849\nmse = 1.002\nsamples = 107\nvalue = 4.96", fillcolor="#fef9f6"] ;
328 -> 329 ;
330 [label="X[2] <= 0.497\nmse = 0.815\nsamples = 11\nvalue = 3.736", fillcolor="#fefbf9"] ;
329 -> 330 ;
331 [label="mse = 0.24\nsamples = 2\nvalue = 5.24", fillcolor="#fef9f5"] ;
330 -> 331 ;
332 [label="X[1] <= -0.486\nmse = 0.329\nsamples = 9\nvalue = 3.402", fillcolor="#fefbf9"] ;
330 -> 332 ;
333 [label="X[5] <= 0.264\nmse = 0.069\nsamples = 5\nvalue = 2.938", fillcolor="#fefcfa"] ;
332 -> 333 ;
334 [label="X[2] <= 1.399\nmse = 0.0\nsamples = 3\nvalue = 2.73", fillcolor="#fefcfb"] ;
333 -> 334 ;
335 [label="mse = -0.0\nsamples = 2\nvalue = 2.72", fillcolor="#fefcfb"] ;
334 -> 335 ;
336 [label="mse = 0.0\nsamples = 1\nvalue = 2.75", fillcolor="#fefcfb"] ;
334 -> 336 ;
337 [label="mse = 0.01\nsamples = 2\nvalue = 3.25", fillcolor="#fefcfa"] ;
333 -> 337 ;
338 [label="X[12] <= 0.5\nmse = 0.048\nsamples = 4\nvalue = 3.982", fillcolor="#fefbf8"] ;
332 -> 338 ;
339 [label="X[10] <= 0.5\nmse = 0.02\nsamples = 3\nvalue = 3.877", fillcolor="#fefbf8"] ;
338 -> 339 ;
340 [label="mse = 0.001\nsamples = 2\nvalue = 3.975", fillcolor="#fefbf8"] ;
339 -> 340 ;
341 [label="mse = 0.0\nsamples = 1\nvalue = 3.68", fillcolor="#fefbf9"] ;
339 -> 341 ;
342 [label="mse = -0.0\nsamples = 1\nvalue = 4.3", fillcolor="#fefaf7"] ;
338 -> 342 ;
343 [label="X[45] <= 0.5\nmse = 0.832\nsamples = 96\nvalue = 5.1", fillcolor="#fef9f5"] ;
329 -> 343 ;
344 [label="X[3] <= -0.71\nmse = 0.585\nsamples = 95\nvalue = 5.049", fillcolor="#fef9f5"] ;
343 -> 344 ;
345 [label="X[5] <= -0.06\nmse = 0.457\nsamples = 80\nvalue = 5.211", fillcolor="#fef9f5"] ;
344 -> 345 ;
346 [label="X[4] <= -0.215\nmse = 0.228\nsamples = 24\nvalue = 5.762", fillcolor="#fef8f4"] ;
345 -> 346 ;
347 [label="X[1] <= 0.307\nmse = 0.037\nsamples = 7\nvalue = 6.219", fillcolor="#fdf7f3"] ;
346 -> 347 ;
348 [label="X[5] <= -0.163\nmse = 0.005\nsamples = 5\nvalue = 6.334", fillcolor="#fdf7f2"] ;
347 -> 348 ;
349 [label="X[5] <= -0.237\nmse = 0.0\nsamples = 3\nvalue = 6.39", fillcolor="#fdf7f2"] ;
348 -> 349 ;
350 [label="mse = 0.0\nsamples = 2\nvalue = 6.4", fillcolor="#fdf7f2"] ;
349 -> 350 ;
351 [label="mse = -0.0\nsamples = 1\nvalue = 6.37", fillcolor="#fdf7f2"] ;
349 -> 351 ;
352 [label="mse = 0.0\nsamples = 2\nvalue = 6.25", fillcolor="#fdf7f3"] ;
348 -> 352 ;
353 [label="mse = -0.0\nsamples = 2\nvalue = 5.93", fillcolor="#fdf8f3"] ;
347 -> 353 ;
354 [label="X[5] <= -0.148\nmse = 0.186\nsamples = 17\nvalue = 5.575", fillcolor="#fef8f4"] ;
346 -> 354 ;
355 [label="X[2] <= 0.766\nmse = 0.077\nsamples = 15\nvalue = 5.457", fillcolor="#fef8f4"] ;
354 -> 355 ;
356 [label="X[1] <= -1.108\nmse = 0.026\nsamples = 10\nvalue = 5.311", fillcolor="#fef9f5"] ;
355 -> 356 ;
357 [label="mse = 0.0\nsamples = 1\nvalue = 4.92", fillcolor="#fef9f6"] ;
356 -> 357 ;
358 [label="X[1] <= -1.052\nmse = 0.01\nsamples = 9\nvalue = 5.354", fillcolor="#fef8f5"] ;
356 -> 358 ;
359 [label="mse = 0.0\nsamples = 2\nvalue = 5.45", fillcolor="#fef8f5"] ;
358 -> 359 ;
360 [label="X[1] <= -0.731\nmse = 0.009\nsamples = 7\nvalue = 5.327", fillcolor="#fef9f5"] ;
358 -> 360 ;
361 [label="mse = 0.0\nsamples = 1\nvalue = 5.15", fillcolor="#fef9f5"] ;
360 -> 361 ;
362 [label="X[4] <= 0.294\nmse = 0.004\nsamples = 6\nvalue = 5.357", fillcolor="#fef8f5"] ;
360 -> 362 ;
363 [label="X[4] <= 0.293\nmse = 0.001\nsamples = 3\nvalue = 5.3", fillcolor="#fef9f5"] ;
362 -> 363 ;
364 [label="mse = 0.0\nsamples = 1\nvalue = 5.34", fillcolor="#fef8f5"] ;
363 -> 364 ;
365 [label="mse = 0.0\nsamples = 2\nvalue = 5.28", fillcolor="#fef9f5"] ;
363 -> 365 ;
366 [label="X[1] <= -0.003\nmse = 0.001\nsamples = 3\nvalue = 5.413", fillcolor="#fef8f5"] ;
362 -> 366 ;
367 [label="mse = 0.0\nsamples = 1\nvalue = 5.36", fillcolor="#fef8f5"] ;
366 -> 367 ;
368 [label="mse = -0.0\nsamples = 2\nvalue = 5.44", fillcolor="#fef8f5"] ;
366 -> 368 ;
369 [label="X[1] <= -0.464\nmse = 0.05\nsamples = 5\nvalue = 5.75", fillcolor="#fef8f4"] ;
355 -> 369 ;
370 [label="X[9] <= 0.5\nmse = 0.014\nsamples = 3\nvalue = 5.917", fillcolor="#fdf8f3"] ;
369 -> 370 ;
371 [label="mse = 0.0\nsamples = 2\nvalue = 6.0", fillcolor="#fdf7f3"] ;
370 -> 371 ;
372 [label="mse = 0.0\nsamples = 1\nvalue = 5.75", fillcolor="#fef8f4"] ;
370 -> 372 ;
373 [label="mse = 0.0\nsamples = 2\nvalue = 5.5", fillcolor="#fef8f4"] ;
369 -> 373 ;
374 [label="mse = 0.126\nsamples = 2\nvalue = 6.455", fillcolor="#fdf7f2"] ;
354 -> 374 ;
375 [label="X[4] <= -0.726\nmse = 0.369\nsamples = 56\nvalue = 4.974", fillcolor="#fef9f6"] ;
345 -> 375 ;
376 [label="X[19] <= 0.5\nmse = 0.296\nsamples = 10\nvalue = 4.332", fillcolor="#fefaf7"] ;
375 -> 376 ;
377 [label="mse = 0.0\nsamples = 2\nvalue = 5.0", fillcolor="#fef9f6"] ;
376 -> 377 ;
378 [label="X[2] <= 0.247\nmse = 0.23\nsamples = 8\nvalue = 4.165", fillcolor="#fefaf8"] ;
376 -> 378 ;
379 [label="X[1] <= -0.14\nmse = 0.088\nsamples = 7\nvalue = 4.017", fillcolor="#fefaf8"] ;
378 -> 379 ;
380 [label="X[1] <= -0.377\nmse = 0.013\nsamples = 3\nvalue = 3.77", fillcolor="#fefbf8"] ;
379 -> 380 ;
381 [label="mse = 0.0\nsamples = 1\nvalue = 3.61", fillcolor="#fefbf9"] ;
380 -> 381 ;
382 [label="mse = -0.0\nsamples = 2\nvalue = 3.85", fillcolor="#fefbf8"] ;
380 -> 382 ;
383 [label="X[1] <= 0.805\nmse = 0.064\nsamples = 4\nvalue = 4.202", fillcolor="#fefaf7"] ;
379 -> 383 ;
384 [label="X[26] <= 0.5\nmse = 0.003\nsamples = 3\nvalue = 4.347", fillcolor="#fefaf7"] ;
383 -> 384 ;
385 [label="mse = 0.0\nsamples = 1\nvalue = 4.42", fillcolor="#fefaf7"] ;
384 -> 385 ;
386 [label="mse = 0.0\nsamples = 2\nvalue = 4.31", fillcolor="#fefaf7"] ;
384 -> 386 ;
387 [label="mse = 0.0\nsamples = 1\nvalue = 3.77", fillcolor="#fefbf8"] ;
383 -> 387 ;
388 [label="mse = 0.0\nsamples = 1\nvalue = 5.2", fillcolor="#fef9f5"] ;
378 -> 388 ;
389 [label="X[2] <= 0.18\nmse = 0.276\nsamples = 46\nvalue = 5.114", fillcolor="#fef9f5"] ;
375 -> 389 ;
390 [label="X[6] <= 0.5\nmse = 0.172\nsamples = 10\nvalue = 5.545", fillcolor="#fef8f4"] ;
389 -> 390 ;
391 [label="mse = 0.0\nsamples = 1\nvalue = 6.6", fillcolor="#fdf7f2"] ;
390 -> 391 ;
392 [label="X[5] <= 0.236\nmse = 0.054\nsamples = 9\nvalue = 5.428", fillcolor="#fef8f5"] ;
390 -> 392 ;
393 [label="X[1] <= 0.384\nmse = 0.014\nsamples = 3\nvalue = 5.687", fillcolor="#fef8f4"] ;
392 -> 393 ;
394 [label="mse = 0.0\nsamples = 2\nvalue = 5.77", fillcolor="#fef8f4"] ;
393 -> 394 ;
395 [label="mse = 0.0\nsamples = 1\nvalue = 5.52", fillcolor="#fef8f4"] ;
393 -> 395 ;
396 [label="X[1] <= 1.092\nmse = 0.024\nsamples = 6\nvalue = 5.298", fillcolor="#fef9f5"] ;
392 -> 396 ;
397 [label="X[1] <= 0.702\nmse = 0.0\nsamples = 4\nvalue = 5.235", fillcolor="#fef9f5"] ;
396 -> 397 ;
398 [label="mse = 0.0\nsamples = 2\nvalue = 5.22", fillcolor="#fef9f5"] ;
397 -> 398 ;
399 [label="mse = 0.0\nsamples = 2\nvalue = 5.25", fillcolor="#fef9f5"] ;
397 -> 399 ;
400 [label="mse = 0.046\nsamples = 2\nvalue = 5.425", fillcolor="#fef8f5"] ;
396 -> 400 ;
401 [label="X[1] <= -0.335\nmse = 0.238\nsamples = 36\nvalue = 4.994", fillcolor="#fef9f6"] ;
389 -> 401 ;
402 [label="X[6] <= 0.5\nmse = 0.182\nsamples = 8\nvalue = 5.359", fillcolor="#fef8f5"] ;
401 -> 402 ;
403 [label="X[5] <= 0.25\nmse = 0.033\nsamples = 3\nvalue = 5.63", fillcolor="#fef8f4"] ;
402 -> 403 ;
404 [label="mse = 0.006\nsamples = 2\nvalue = 5.51", fillcolor="#fef8f4"] ;
403 -> 404 ;
405 [label="mse = -0.0\nsamples = 1\nvalue = 5.87", fillcolor="#fdf8f4"] ;
403 -> 405 ;
406 [label="X[1] <= -1.01\nmse = 0.201\nsamples = 5\nvalue = 5.196", fillcolor="#fef9f5"] ;
402 -> 406 ;
407 [label="mse = 0.0\nsamples = 1\nvalue = 5.75", fillcolor="#fef8f4"] ;
406 -> 407 ;
408 [label="X[1] <= -0.717\nmse = 0.155\nsamples = 4\nvalue = 5.058", fillcolor="#fef9f5"] ;
406 -> 408 ;
409 [label="mse = 0.0\nsamples = 1\nvalue = 4.41", fillcolor="#fefaf7"] ;
408 -> 409 ;
410 [label="X[5] <= 0.103\nmse = 0.021\nsamples = 3\nvalue = 5.273", fillcolor="#fef9f5"] ;
408 -> 410 ;
411 [label="mse = 0.0\nsamples = 1\nvalue = 5.47", fillcolor="#fef8f4"] ;
410 -> 411 ;
412 [label="mse = 0.002\nsamples = 2\nvalue = 5.175", fillcolor="#fef9f5"] ;
410 -> 412 ;
413 [label="X[2] <= 0.809\nmse = 0.205\nsamples = 28\nvalue = 4.89", fillcolor="#fef9f6"] ;
401 -> 413 ;
414 [label="X[1] <= -0.058\nmse = 0.105\nsamples = 11\nvalue = 4.574", fillcolor="#fefaf7"] ;
413 -> 414 ;
415 [label="X[5] <= -0.001\nmse = 0.027\nsamples = 4\nvalue = 4.915", fillcolor="#fef9f6"] ;
414 -> 415 ;
416 [label="mse = 0.0\nsamples = 1\nvalue = 4.65", fillcolor="#fefaf6"] ;
415 -> 416 ;
417 [label="X[26] <= 0.5\nmse = 0.005\nsamples = 3\nvalue = 5.003", fillcolor="#fef9f6"] ;
415 -> 417 ;
418 [label="mse = 0.0\nsamples = 1\nvalue = 5.1", fillcolor="#fef9f5"] ;
417 -> 418 ;
419 [label="mse = 0.0\nsamples = 2\nvalue = 4.955", fillcolor="#fef9f6"] ;
417 -> 419 ;
420 [label="X[5] <= 0.088\nmse = 0.045\nsamples = 7\nvalue = 4.379", fillcolor="#fefaf7"] ;
414 -> 420 ;
421 [label="mse = 0.006\nsamples = 2\nvalue = 4.67", fillcolor="#fef9f6"] ;
420 -> 421 ;
422 [label="X[6] <= 0.5\nmse = 0.013\nsamples = 5\nvalue = 4.262", fillcolor="#fefaf7"] ;
420 -> 422 ;
423 [label="mse = 0.0\nsamples = 2\nvalue = 4.395", fillcolor="#fefaf7"] ;
422 -> 423 ;
424 [label="X[4] <= 0.293\nmse = 0.001\nsamples = 3\nvalue = 4.173", fillcolor="#fefaf8"] ;
422 -> 424 ;
425 [label="mse = 0.0\nsamples = 2\nvalue = 4.2", fillcolor="#fefaf7"] ;
424 -> 425 ;
426 [label="mse = -0.0\nsamples = 1\nvalue = 4.12", fillcolor="#fefaf8"] ;
424 -> 426 ;
427 [label="X[1] <= -0.099\nmse = 0.164\nsamples = 17\nvalue = 5.094", fillcolor="#fef9f5"] ;
413 -> 427 ;
428 [label="mse = 0.0\nsamples = 1\nvalue = 3.65", fillcolor="#fefbf9"] ;
427 -> 428 ;
429 [label="X[1] <= 0.114\nmse = 0.036\nsamples = 16\nvalue = 5.184", fillcolor="#fef9f5"] ;
427 -> 429 ;
430 [label="X[5] <= 0.132\nmse = 0.007\nsamples = 3\nvalue = 5.5", fillcolor="#fef8f4"] ;
429 -> 430 ;
431 [label="mse = 0.0\nsamples = 2\nvalue = 5.44", fillcolor="#fef8f5"] ;
430 -> 431 ;
432 [label="mse = -0.0\nsamples = 1\nvalue = 5.62", fillcolor="#fef8f4"] ;
430 -> 432 ;
433 [label="X[2] <= 0.861\nmse = 0.014\nsamples = 13\nvalue = 5.112", fillcolor="#fef9f5"] ;
429 -> 433 ;
434 [label="mse = 0.0\nsamples = 1\nvalue = 5.33", fillcolor="#fef9f5"] ;
433 -> 434 ;
435 [label="X[5] <= 0.279\nmse = 0.011\nsamples = 12\nvalue = 5.093", fillcolor="#fef9f5"] ;
433 -> 435 ;
436 [label="X[5] <= 0.117\nmse = 0.009\nsamples = 8\nvalue = 5.047", fillcolor="#fef9f5"] ;
435 -> 436 ;
437 [label="X[5] <= 0.088\nmse = 0.012\nsamples = 3\nvalue = 5.127", fillcolor="#fef9f5"] ;
436 -> 437 ;
438 [label="mse = 0.002\nsamples = 2\nvalue = 5.055", fillcolor="#fef9f5"] ;
437 -> 438 ;
439 [label="mse = 0.0\nsamples = 1\nvalue = 5.27", fillcolor="#fef9f5"] ;
437 -> 439 ;
440 [label="X[2] <= 1.017\nmse = 0.002\nsamples = 5\nvalue = 5.0", fillcolor="#fef9f6"] ;
436 -> 440 ;
441 [label="mse = 0.0\nsamples = 4\nvalue = 5.022", fillcolor="#fef9f6"] ;
440 -> 441 ;
442 [label="mse = 0.0\nsamples = 1\nvalue = 4.91", fillcolor="#fef9f6"] ;
440 -> 442 ;
443 [label="X[5] <= 0.427\nmse = 0.001\nsamples = 4\nvalue = 5.185", fillcolor="#fef9f5"] ;
435 -> 443 ;
444 [label="mse = 0.0\nsamples = 2\nvalue = 5.2", fillcolor="#fef9f5"] ;
443 -> 444 ;
445 [label="mse = 0.001\nsamples = 2\nvalue = 5.17", fillcolor="#fef9f5"] ;
443 -> 445 ;
446 [label="X[2] <= 0.225\nmse = 0.382\nsamples = 15\nvalue = 4.185", fillcolor="#fefaf7"] ;
344 -> 446 ;
447 [label="X[19] <= 0.5\nmse = 0.197\nsamples = 9\nvalue = 4.533", fillcolor="#fefaf7"] ;
446 -> 447 ;
448 [label="mse = 0.0\nsamples = 1\nvalue = 5.5", fillcolor="#fef8f4"] ;
447 -> 448 ;
449 [label="X[9] <= 0.5\nmse = 0.091\nsamples = 8\nvalue = 4.412", fillcolor="#fefaf7"] ;
447 -> 449 ;
450 [label="X[1] <= 0.007\nmse = 0.026\nsamples = 6\nvalue = 4.567", fillcolor="#fefaf7"] ;
449 -> 450 ;
451 [label="X[5] <= 0.441\nmse = 0.016\nsamples = 3\nvalue = 4.673", fillcolor="#fef9f6"] ;
450 -> 451 ;
452 [label="mse = 0.012\nsamples = 2\nvalue = 4.61", fillcolor="#fefaf6"] ;
451 -> 452 ;
453 [label="mse = -0.0\nsamples = 1\nvalue = 4.8", fillcolor="#fef9f6"] ;
451 -> 453 ;
454 [label="X[5] <= 0.029\nmse = 0.013\nsamples = 3\nvalue = 4.46", fillcolor="#fefaf7"] ;
450 -> 454 ;
455 [label="mse = 0.0\nsamples = 1\nvalue = 4.3", fillcolor="#fefaf7"] ;
454 -> 455 ;
456 [label="mse = 0.0\nsamples = 2\nvalue = 4.54", fillcolor="#fefaf7"] ;
454 -> 456 ;
457 [label="mse = 0.0\nsamples = 2\nvalue = 3.95", fillcolor="#fefbf8"] ;
449 -> 457 ;
458 [label="X[5] <= -0.177\nmse = 0.202\nsamples = 6\nvalue = 3.662", fillcolor="#fefbf9"] ;
446 -> 458 ;
459 [label="mse = 0.0\nsamples = 2\nvalue = 4.12", fillcolor="#fefaf8"] ;
458 -> 459 ;
460 [label="X[4] <= -0.315\nmse = 0.146\nsamples = 4\nvalue = 3.432", fillcolor="#fefbf9"] ;
458 -> 460 ;
461 [label="mse = 0.0\nsamples = 1\nvalue = 4.06", fillcolor="#fefaf8"] ;
460 -> 461 ;
462 [label="X[16] <= 0.5\nmse = 0.02\nsamples = 3\nvalue = 3.223", fillcolor="#fefcfa"] ;
460 -> 462 ;
463 [label="mse = 0.004\nsamples = 2\nvalue = 3.315", fillcolor="#fefcfa"] ;
462 -> 463 ;
464 [label="mse = -0.0\nsamples = 1\nvalue = 3.04", fillcolor="#fefcfa"] ;
462 -> 464 ;
465 [label="mse = 0.0\nsamples = 1\nvalue = 10.0", fillcolor="#fcf2ea"] ;
343 -> 465 ;
466 [label="X[2] <= 0.18\nmse = 0.618\nsamples = 63\nvalue = 4.076", fillcolor="#fefaf8"] ;
328 -> 466 ;
467 [label="X[4] <= -0.718\nmse = 0.453\nsamples = 19\nvalue = 4.693", fillcolor="#fef9f6"] ;
466 -> 467 ;
468 [label="X[5] <= 1.031\nmse = 0.294\nsamples = 6\nvalue = 4.16", fillcolor="#fefaf8"] ;
467 -> 468 ;
469 [label="mse = 0.065\nsamples = 2\nvalue = 4.855", fillcolor="#fef9f6"] ;
468 -> 469 ;
470 [label="X[1] <= 0.699\nmse = 0.046\nsamples = 4\nvalue = 3.812", fillcolor="#fefbf8"] ;
468 -> 470 ;
471 [label="mse = 0.0\nsamples = 1\nvalue = 4.17", fillcolor="#fefaf8"] ;
470 -> 471 ;
472 [label="X[16] <= 0.5\nmse = 0.004\nsamples = 3\nvalue = 3.693", fillcolor="#fefbf9"] ;
470 -> 472 ;
473 [label="mse = 0.0\nsamples = 1\nvalue = 3.6", fillcolor="#fefbf9"] ;
472 -> 473 ;
474 [label="mse = -0.0\nsamples = 2\nvalue = 3.74", fillcolor="#fefbf9"] ;
472 -> 474 ;
475 [label="X[4] <= 0.3\nmse = 0.335\nsamples = 13\nvalue = 4.939", fillcolor="#fef9f6"] ;
467 -> 475 ;
476 [label="X[45] <= 0.5\nmse = 0.173\nsamples = 12\nvalue = 5.06", fillcolor="#fef9f5"] ;
475 -> 476 ;
477 [label="X[8] <= 0.5\nmse = 0.119\nsamples = 11\nvalue = 4.984", fillcolor="#fef9f6"] ;
476 -> 477 ;
478 [label="X[1] <= 1.767\nmse = 0.087\nsamples = 10\nvalue = 5.047", fillcolor="#fef9f5"] ;
477 -> 478 ;
479 [label="X[1] <= 0.412\nmse = 0.049\nsamples = 8\nvalue = 5.156", fillcolor="#fef9f5"] ;
478 -> 479 ;
480 [label="X[9] <= 0.5\nmse = 0.027\nsamples = 4\nvalue = 5.025", fillcolor="#fef9f6"] ;
479 -> 480 ;
481 [label="X[4] <= -0.212\nmse = 0.0\nsamples = 3\nvalue = 4.93", fillcolor="#fef9f6"] ;
480 -> 481 ;
482 [label="mse = 0.0\nsamples = 1\nvalue = 4.95", fillcolor="#fef9f6"] ;
481 -> 482 ;
483 [label="mse = 0.0\nsamples = 2\nvalue = 4.92", fillcolor="#fef9f6"] ;
481 -> 483 ;
484 [label="mse = 0.0\nsamples = 1\nvalue = 5.31", fillcolor="#fef9f5"] ;
480 -> 484 ;
485 [label="X[1] <= 1.219\nmse = 0.035\nsamples = 4\nvalue = 5.288", fillcolor="#fef9f5"] ;
479 -> 485 ;
486 [label="mse = 0.001\nsamples = 2\nvalue = 5.475", fillcolor="#fef8f4"] ;
485 -> 486 ;
487 [label="mse = 0.0\nsamples = 2\nvalue = 5.1", fillcolor="#fef9f5"] ;
485 -> 487 ;
488 [label="mse = 0.0\nsamples = 2\nvalue = 4.61", fillcolor="#fefaf6"] ;
478 -> 488 ;
489 [label="mse = -0.0\nsamples = 1\nvalue = 4.35", fillcolor="#fefaf7"] ;
477 -> 489 ;
490 [label="mse = -0.0\nsamples = 1\nvalue = 5.9", fillcolor="#fdf8f3"] ;
476 -> 490 ;
491 [label="mse = 0.0\nsamples = 1\nvalue = 3.49", fillcolor="#fefbf9"] ;
475 -> 491 ;
492 [label="X[35] <= 0.5\nmse = 0.454\nsamples = 44\nvalue = 3.809", fillcolor="#fefbf8"] ;
466 -> 492 ;
493 [label="X[2] <= 0.247\nmse = 0.385\nsamples = 32\nvalue = 3.62", fillcolor="#fefbf9"] ;
492 -> 493 ;
494 [label="X[8] <= 0.5\nmse = 0.256\nsamples = 13\nvalue = 4.077", fillcolor="#fefaf8"] ;
493 -> 494 ;
495 [label="X[18] <= 0.5\nmse = 0.13\nsamples = 11\nvalue = 3.916", fillcolor="#fefbf8"] ;
494 -> 495 ;
496 [label="X[1] <= 1.181\nmse = 0.057\nsamples = 8\nvalue = 3.738", fillcolor="#fefbf9"] ;
495 -> 496 ;
497 [label="X[1] <= 0.105\nmse = 0.016\nsamples = 5\nvalue = 3.882", fillcolor="#fefbf8"] ;
496 -> 497 ;
498 [label="mse = 0.021\nsamples = 2\nvalue = 3.985", fillcolor="#fefbf8"] ;
497 -> 498 ;
499 [label="X[1] <= 0.822\nmse = 0.001\nsamples = 3\nvalue = 3.813", fillcolor="#fefbf8"] ;
497 -> 499 ;
500 [label="mse = 0.0\nsamples = 1\nvalue = 3.86", fillcolor="#fefbf8"] ;
499 -> 500 ;
501 [label="mse = -0.0\nsamples = 2\nvalue = 3.79", fillcolor="#fefbf8"] ;
499 -> 501 ;
502 [label="X[5] <= 1.033\nmse = 0.032\nsamples = 3\nvalue = 3.497", fillcolor="#fefbf9"] ;
496 -> 502 ;
503 [label="mse = 0.0\nsamples = 1\nvalue = 3.75", fillcolor="#fefbf9"] ;
502 -> 503 ;
504 [label="mse = 0.0\nsamples = 2\nvalue = 3.37", fillcolor="#fefbf9"] ;
502 -> 504 ;
505 [label="X[1] <= -0.823\nmse = 0.011\nsamples = 3\nvalue = 4.393", fillcolor="#fefaf7"] ;
495 -> 505 ;
506 [label="mse = 0.0\nsamples = 1\nvalue = 4.54", fillcolor="#fefaf7"] ;
505 -> 506 ;
507 [label="mse = 0.0\nsamples = 2\nvalue = 4.32", fillcolor="#fefaf7"] ;
505 -> 507 ;
508 [label="mse = 0.029\nsamples = 2\nvalue = 4.96", fillcolor="#fef9f6"] ;
494 -> 508 ;
509 [label="X[41] <= 0.5\nmse = 0.233\nsamples = 19\nvalue = 3.307", fillcolor="#fefcfa"] ;
493 -> 509 ;
510 [label="X[1] <= -0.134\nmse = 0.121\nsamples = 18\nvalue = 3.388", fillcolor="#fefbf9"] ;
509 -> 510 ;
511 [label="X[5] <= 1.136\nmse = 0.048\nsamples = 3\nvalue = 3.95", fillcolor="#fefbf8"] ;
510 -> 511 ;
512 [label="mse = 0.009\nsamples = 2\nvalue = 3.805", fillcolor="#fefbf8"] ;
511 -> 512 ;
513 [label="mse = 0.0\nsamples = 1\nvalue = 4.24", fillcolor="#fefaf7"] ;
511 -> 513 ;
514 [label="X[18] <= 0.5\nmse = 0.06\nsamples = 15\nvalue = 3.275", fillcolor="#fefcfa"] ;
510 -> 514 ;
515 [label="X[1] <= 0.285\nmse = 0.031\nsamples = 14\nvalue = 3.228", fillcolor="#fefcfa"] ;
514 -> 515 ;
516 [label="X[26] <= 0.5\nmse = 0.003\nsamples = 4\nvalue = 3.4", fillcolor="#fefbf9"] ;
515 -> 516 ;
517 [label="mse = 0.0\nsamples = 2\nvalue = 3.35", fillcolor="#fefbf9"] ;
516 -> 517 ;
518 [label="mse = 0.0\nsamples = 2\nvalue = 3.45", fillcolor="#fefbf9"] ;
516 -> 518 ;
519 [label="X[5] <= 0.692\nmse = 0.025\nsamples = 10\nvalue = 3.159", fillcolor="#fefcfa"] ;
515 -> 519 ;
520 [label="X[2] <= 0.365\nmse = 0.006\nsamples = 3\nvalue = 3.313", fillcolor="#fefcfa"] ;
519 -> 520 ;
521 [label="mse = 0.0\nsamples = 2\nvalue = 3.26", fillcolor="#fefcfa"] ;
520 -> 521 ;
522 [label="mse = 0.0\nsamples = 1\nvalue = 3.42", fillcolor="#fefbf9"] ;
520 -> 522 ;
523 [label="X[2] <= 0.365\nmse = 0.019\nsamples = 7\nvalue = 3.093", fillcolor="#fefcfa"] ;
519 -> 523 ;
524 [label="mse = 0.011\nsamples = 2\nvalue = 3.285", fillcolor="#fefcfa"] ;
523 -> 524 ;
525 [label="X[4] <= -0.32\nmse = 0.001\nsamples = 5\nvalue = 3.016", fillcolor="#fefcfa"] ;
523 -> 525 ;
526 [label="X[16] <= 0.5\nmse = 0.001\nsamples = 3\nvalue = 3.04", fillcolor="#fefcfa"] ;
525 -> 526 ;
527 [label="mse = 0.0\nsamples = 1\nvalue = 3.08", fillcolor="#fefcfa"] ;
526 -> 527 ;
528 [label="mse = 0.0\nsamples = 2\nvalue = 3.02", fillcolor="#fefcfa"] ;
526 -> 528 ;
529 [label="mse = -0.0\nsamples = 2\nvalue = 2.98", fillcolor="#fefcfa"] ;
525 -> 529 ;
530 [label="mse = 0.0\nsamples = 1\nvalue = 3.94", fillcolor="#fefbf8"] ;
514 -> 530 ;
531 [label="mse = -0.0\nsamples = 1\nvalue = 1.85", fillcolor="#fffefd"] ;
509 -> 531 ;
532 [label="X[4] <= -0.721\nmse = 0.287\nsamples = 12\nvalue = 4.313", fillcolor="#fefaf7"] ;
492 -> 532 ;
533 [label="X[1] <= -0.842\nmse = 0.169\nsamples = 5\nvalue = 4.85", fillcolor="#fef9f6"] ;
532 -> 533 ;
534 [label="mse = 0.0\nsamples = 1\nvalue = 5.45", fillcolor="#fef8f5"] ;
533 -> 534 ;
535 [label="X[5] <= 0.737\nmse = 0.099\nsamples = 4\nvalue = 4.7", fillcolor="#fef9f6"] ;
533 -> 535 ;
536 [label="X[1] <= 0.405\nmse = 0.042\nsamples = 3\nvalue = 4.85", fillcolor="#fef9f6"] ;
535 -> 536 ;
537 [label="mse = 0.0\nsamples = 2\nvalue = 4.705", fillcolor="#fef9f6"] ;
536 -> 537 ;
538 [label="mse = -0.0\nsamples = 1\nvalue = 5.14", fillcolor="#fef9f5"] ;
536 -> 538 ;
539 [label="mse = 0.0\nsamples = 1\nvalue = 4.25", fillcolor="#fefaf7"] ;
535 -> 539 ;
540 [label="X[1] <= -0.183\nmse = 0.019\nsamples = 7\nvalue = 3.93", fillcolor="#fefbf8"] ;
532 -> 540 ;
541 [label="X[5] <= 0.87\nmse = 0.001\nsamples = 3\nvalue = 3.783", fillcolor="#fefbf8"] ;
540 -> 541 ;
542 [label="mse = 0.0\nsamples = 1\nvalue = 3.75", fillcolor="#fefbf9"] ;
541 -> 542 ;
543 [label="mse = 0.0\nsamples = 2\nvalue = 3.8", fillcolor="#fefbf8"] ;
541 -> 543 ;
544 [label="X[2] <= 0.694\nmse = 0.005\nsamples = 4\nvalue = 4.04", fillcolor="#fefaf8"] ;
540 -> 544 ;
545 [label="mse = 0.0\nsamples = 2\nvalue = 4.11", fillcolor="#fefaf8"] ;
544 -> 545 ;
546 [label="mse = 0.0\nsamples = 2\nvalue = 3.97", fillcolor="#fefbf8"] ;
544 -> 546 ;
547 [label="X[5] <= 2.153\nmse = 0.497\nsamples = 51\nvalue = 2.875", fillcolor="#fefcfb"] ;
327 -> 547 ;
548 [label="X[3] <= -0.806\nmse = 0.356\nsamples = 36\nvalue = 3.176", fillcolor="#fefcfa"] ;
547 -> 548 ;
549 [label="X[3] <= -0.977\nmse = 0.119\nsamples = 10\nvalue = 2.548", fillcolor="#fffdfb"] ;
548 -> 549 ;
550 [label="X[1] <= 0.614\nmse = 0.057\nsamples = 6\nvalue = 2.78", fillcolor="#fefcfb"] ;
549 -> 550 ;
551 [label="X[16] <= 0.5\nmse = 0.006\nsamples = 4\nvalue = 2.902", fillcolor="#fefcfb"] ;
550 -> 551 ;
552 [label="X[1] <= -0.369\nmse = 0.002\nsamples = 3\nvalue = 2.867", fillcolor="#fefcfb"] ;
551 -> 552 ;
553 [label="mse = 0.0\nsamples = 2\nvalue = 2.9", fillcolor="#fefcfb"] ;
552 -> 553 ;
554 [label="mse = 0.0\nsamples = 1\nvalue = 2.8", fillcolor="#fefcfb"] ;
552 -> 554 ;
555 [label="mse = -0.0\nsamples = 1\nvalue = 3.01", fillcolor="#fefcfa"] ;
551 -> 555 ;
556 [label="mse = 0.07\nsamples = 2\nvalue = 2.535", fillcolor="#fffdfb"] ;
550 -> 556 ;
557 [label="X[11] <= 0.5\nmse = 0.011\nsamples = 4\nvalue = 2.2", fillcolor="#fffdfc"] ;
549 -> 557 ;
558 [label="mse = 0.003\nsamples = 2\nvalue = 2.3", fillcolor="#fffdfc"] ;
557 -> 558 ;
559 [label="mse = 0.0\nsamples = 2\nvalue = 2.1", fillcolor="#fffdfc"] ;
557 -> 559 ;
560 [label="X[17] <= 0.5\nmse = 0.237\nsamples = 26\nvalue = 3.417", fillcolor="#fefbf9"] ;
548 -> 560 ;
561 [label="X[2] <= 1.097\nmse = 0.199\nsamples = 25\nvalue = 3.46", fillcolor="#fefbf9"] ;
560 -> 561 ;
562 [label="X[5] <= 1.784\nmse = 0.184\nsamples = 21\nvalue = 3.375", fillcolor="#fefbf9"] ;
561 -> 562 ;
563 [label="X[8] <= 0.5\nmse = 0.128\nsamples = 18\nvalue = 3.482", fillcolor="#fefbf9"] ;
562 -> 563 ;
564 [label="X[5] <= 1.696\nmse = 0.09\nsamples = 17\nvalue = 3.532", fillcolor="#fefbf9"] ;
563 -> 564 ;
565 [label="X[9] <= 0.5\nmse = 0.06\nsamples = 14\nvalue = 3.439", fillcolor="#fefbf9"] ;
564 -> 565 ;
566 [label="X[1] <= 0.891\nmse = 0.05\nsamples = 11\nvalue = 3.364", fillcolor="#fefbf9"] ;
565 -> 566 ;
567 [label="X[2] <= -0.224\nmse = 0.041\nsamples = 9\nvalue = 3.306", fillcolor="#fefcfa"] ;
566 -> 567 ;
568 [label="mse = 0.0\nsamples = 1\nvalue = 3.72", fillcolor="#fefbf9"] ;
567 -> 568 ;
569 [label="X[5] <= 1.445\nmse = 0.022\nsamples = 8\nvalue = 3.254", fillcolor="#fefcfa"] ;
567 -> 569 ;
570 [label="X[4] <= -0.778\nmse = 0.0\nsamples = 4\nvalue = 3.135", fillcolor="#fefcfa"] ;
569 -> 570 ;
571 [label="mse = 0.0\nsamples = 1\nvalue = 3.1", fillcolor="#fefcfa"] ;
570 -> 571 ;
572 [label="X[4] <= -0.724\nmse = 0.0\nsamples = 3\nvalue = 3.147", fillcolor="#fefcfa"] ;
570 -> 572 ;
573 [label="mse = 0.0\nsamples = 2\nvalue = 3.145", fillcolor="#fefcfa"] ;
572 -> 573 ;
574 [label="mse = -0.0\nsamples = 1\nvalue = 3.15", fillcolor="#fefcfa"] ;
572 -> 574 ;
575 [label="X[35] <= 0.5\nmse = 0.016\nsamples = 4\nvalue = 3.372", fillcolor="#fefbf9"] ;
569 -> 575 ;
576 [label="mse = 0.0\nsamples = 2\nvalue = 3.25", fillcolor="#fefcfa"] ;
575 -> 576 ;
577 [label="mse = 0.002\nsamples = 2\nvalue = 3.495", fillcolor="#fefbf9"] ;
575 -> 577 ;
578 [label="mse = 0.003\nsamples = 2\nvalue = 3.625", fillcolor="#fefbf9"] ;
566 -> 578 ;
579 [label="X[35] <= 0.5\nmse = 0.001\nsamples = 3\nvalue = 3.717", fillcolor="#fefbf9"] ;
565 -> 579 ;
580 [label="mse = 0.0\nsamples = 1\nvalue = 3.75", fillcolor="#fefbf9"] ;
579 -> 580 ;
581 [label="mse = 0.0\nsamples = 2\nvalue = 3.7", fillcolor="#fefbf9"] ;
579 -> 581 ;
582 [label="X[4] <= -0.212\nmse = 0.001\nsamples = 3\nvalue = 3.967", fillcolor="#fefbf8"] ;
564 -> 582 ;
583 [label="mse = 0.0\nsamples = 1\nvalue = 4.0", fillcolor="#fefaf8"] ;
582 -> 583 ;
584 [label="mse = -0.0\nsamples = 2\nvalue = 3.95", fillcolor="#fefbf8"] ;
582 -> 584 ;
585 [label="mse = -0.0\nsamples = 1\nvalue = 2.63", fillcolor="#fefdfb"] ;
563 -> 585 ;
586 [label="X[4] <= -0.205\nmse = 0.036\nsamples = 3\nvalue = 2.73", fillcolor="#fefcfb"] ;
562 -> 586 ;
587 [label="mse = 0.004\nsamples = 2\nvalue = 2.86", fillcolor="#fefcfb"] ;
586 -> 587 ;
588 [label="mse = -0.0\nsamples = 1\nvalue = 2.47", fillcolor="#fffdfc"] ;
586 -> 588 ;
589 [label="X[5] <= 1.519\nmse = 0.041\nsamples = 4\nvalue = 3.905", fillcolor="#fefbf8"] ;
561 -> 589 ;
590 [label="mse = 0.014\nsamples = 2\nvalue = 3.72", fillcolor="#fefbf9"] ;
589 -> 590 ;
591 [label="mse = 0.0\nsamples = 2\nvalue = 4.09", fillcolor="#fefaf8"] ;
589 -> 591 ;
592 [label="mse = 0.0\nsamples = 1\nvalue = 2.35", fillcolor="#fffdfc"] ;
560 -> 592 ;
593 [label="X[2] <= -0.097\nmse = 0.101\nsamples = 15\nvalue = 2.154", fillcolor="#fffdfc"] ;
547 -> 593 ;
594 [label="X[1] <= -0.124\nmse = 0.028\nsamples = 10\nvalue = 2.321", fillcolor="#fffdfc"] ;
593 -> 594 ;
595 [label="mse = 0.0\nsamples = 1\nvalue = 2.7", fillcolor="#fefcfb"] ;
594 -> 595 ;
596 [label="X[1] <= 1.549\nmse = 0.014\nsamples = 9\nvalue = 2.279", fillcolor="#fffdfc"] ;
594 -> 596 ;
597 [label="X[4] <= -0.787\nmse = 0.005\nsamples = 7\nvalue = 2.333", fillcolor="#fffdfc"] ;
596 -> 597 ;
598 [label="mse = 0.0\nsamples = 2\nvalue = 2.41", fillcolor="#fffdfc"] ;
597 -> 598 ;
599 [label="X[5] <= 2.434\nmse = 0.003\nsamples = 5\nvalue = 2.302", fillcolor="#fffdfc"] ;
597 -> 599 ;
600 [label="mse = 0.0\nsamples = 2\nvalue = 2.37", fillcolor="#fffdfc"] ;
599 -> 600 ;
601 [label="X[3] <= -0.882\nmse = 0.0\nsamples = 3\nvalue = 2.257", fillcolor="#fffdfc"] ;
599 -> 601 ;
602 [label="mse = 0.0\nsamples = 2\nvalue = 2.26", fillcolor="#fffdfc"] ;
601 -> 602 ;
603 [label="mse = -0.0\nsamples = 1\nvalue = 2.25", fillcolor="#fffdfc"] ;
601 -> 603 ;
604 [label="mse = -0.0\nsamples = 2\nvalue = 2.09", fillcolor="#fffdfc"] ;
596 -> 604 ;
605 [label="X[16] <= 0.5\nmse = 0.078\nsamples = 5\nvalue = 1.82", fillcolor="#fffefd"] ;
593 -> 605 ;
606 [label="X[5] <= 2.758\nmse = 0.013\nsamples = 4\nvalue = 1.69", fillcolor="#fffefd"] ;
605 -> 606 ;
607 [label="X[5] <= 2.566\nmse = 0.003\nsamples = 3\nvalue = 1.75", fillcolor="#fffefd"] ;
606 -> 607 ;
608 [label="mse = 0.001\nsamples = 2\nvalue = 1.715", fillcolor="#fffefd"] ;
607 -> 608 ;
609 [label="mse = -0.0\nsamples = 1\nvalue = 1.82", fillcolor="#fffefd"] ;
607 -> 609 ;
610 [label="mse = 0.0\nsamples = 1\nvalue = 1.51", fillcolor="#fffefe"] ;
606 -> 610 ;
611 [label="mse = -0.0\nsamples = 1\nvalue = 2.34", fillcolor="#fffdfc"] ;
605 -> 611 ;
612 [label="X[5] <= 0.767\nmse = 4.108\nsamples = 225\nvalue = 6.249", fillcolor="#fdf7f3"] ;
326 -> 612 ;
613 [label="X[3] <= -0.12\nmse = 2.834\nsamples = 152\nvalue = 6.913", fillcolor="#fdf6f1"] ;
612 -> 613 ;
614 [label="X[1] <= -1.183\nmse = 1.713\nsamples = 121\nvalue = 6.438", fillcolor="#fdf7f2"] ;
613 -> 614 ;
615 [label="X[3] <= -0.565\nmse = 15.242\nsamples = 3\nvalue = 9.517", fillcolor="#fcf2eb"] ;
614 -> 615 ;
616 [label="mse = 0.722\nsamples = 2\nvalue = 6.8", fillcolor="#fdf6f1"] ;
615 -> 616 ;
617 [label="mse = 0.0\nsamples = 1\nvalue = 14.95", fillcolor="#fbeade"] ;
615 -> 617 ;
618 [label="X[5] <= 0.088\nmse = 1.122\nsamples = 118\nvalue = 6.36", fillcolor="#fdf7f2"] ;
614 -> 618 ;
619 [label="X[1] <= -0.269\nmse = 0.741\nsamples = 55\nvalue = 6.774", fillcolor="#fdf6f1"] ;
618 -> 619 ;
620 [label="X[2] <= 0.06\nmse = 1.066\nsamples = 11\nvalue = 7.557", fillcolor="#fdf5f0"] ;
619 -> 620 ;
621 [label="X[1] <= -0.904\nmse = 0.17\nsamples = 7\nvalue = 6.927", fillcolor="#fdf6f1"] ;
620 -> 621 ;
622 [label="X[5] <= -0.162\nmse = 0.001\nsamples = 3\nvalue = 6.533", fillcolor="#fdf7f2"] ;
621 -> 622 ;
623 [label="mse = -0.0\nsamples = 2\nvalue = 6.55", fillcolor="#fdf7f2"] ;
622 -> 623 ;
624 [label="mse = 0.0\nsamples = 1\nvalue = 6.5", fillcolor="#fdf7f2"] ;
622 -> 624 ;
625 [label="X[5] <= 0.013\nmse = 0.094\nsamples = 4\nvalue = 7.222", fillcolor="#fdf6f0"] ;
621 -> 625 ;
626 [label="mse = 0.006\nsamples = 2\nvalue = 7.525", fillcolor="#fdf5f0"] ;
625 -> 626 ;
627 [label="mse = 0.0\nsamples = 2\nvalue = 6.92", fillcolor="#fdf6f1"] ;
625 -> 627 ;
628 [label="X[2] <= 0.183\nmse = 0.722\nsamples = 4\nvalue = 8.66", fillcolor="#fdf4ed"] ;
620 -> 628 ;
629 [label="mse = 0.0\nsamples = 1\nvalue = 9.9", fillcolor="#fcf2ea"] ;
628 -> 629 ;
630 [label="X[1] <= -0.816\nmse = 0.279\nsamples = 3\nvalue = 8.247", fillcolor="#fdf4ee"] ;
628 -> 630 ;
631 [label="mse = 0.0\nsamples = 2\nvalue = 8.62", fillcolor="#fdf4ed"] ;
630 -> 631 ;
632 [label="mse = 0.0\nsamples = 1\nvalue = 7.5", fillcolor="#fdf5f0"] ;
630 -> 632 ;
633 [label="X[4] <= -0.719\nmse = 0.468\nsamples = 44\nvalue = 6.578", fillcolor="#fdf7f2"] ;
619 -> 633 ;
634 [label="X[1] <= 1.611\nmse = 0.199\nsamples = 4\nvalue = 5.928", fillcolor="#fdf8f3"] ;
633 -> 634 ;
635 [label="X[2] <= 1.48\nmse = 0.061\nsamples = 3\nvalue = 6.153", fillcolor="#fdf7f3"] ;
634 -> 635 ;
636 [label="mse = 0.0\nsamples = 1\nvalue = 6.49", fillcolor="#fdf7f2"] ;
635 -> 636 ;
637 [label="mse = 0.007\nsamples = 2\nvalue = 5.985", fillcolor="#fdf8f3"] ;
635 -> 637 ;
638 [label="mse = 0.0\nsamples = 1\nvalue = 5.25", fillcolor="#fef9f5"] ;
634 -> 638 ;
639 [label="X[3] <= -0.312\nmse = 0.449\nsamples = 40\nvalue = 6.643", fillcolor="#fdf7f2"] ;
633 -> 639 ;
640 [label="X[1] <= 0.295\nmse = 0.381\nsamples = 31\nvalue = 6.512", fillcolor="#fdf7f2"] ;
639 -> 640 ;
641 [label="X[1] <= -0.156\nmse = 0.313\nsamples = 11\nvalue = 6.955", fillcolor="#fdf6f1"] ;
640 -> 641 ;
642 [label="mse = 0.084\nsamples = 2\nvalue = 6.04", fillcolor="#fdf7f3"] ;
641 -> 642 ;
643 [label="X[5] <= 0.058\nmse = 0.136\nsamples = 9\nvalue = 7.159", fillcolor="#fdf6f0"] ;
641 -> 643 ;
644 [label="X[5] <= -0.133\nmse = 0.065\nsamples = 8\nvalue = 7.06", fillcolor="#fdf6f1"] ;
643 -> 644 ;
645 [label="X[3] <= -0.515\nmse = 0.0\nsamples = 4\nvalue = 7.26", fillcolor="#fdf6f0"] ;
644 -> 645 ;
646 [label="mse = 0.0\nsamples = 2\nvalue = 7.27", fillcolor="#fdf6f0"] ;
645 -> 646 ;
647 [label="mse = -0.0\nsamples = 2\nvalue = 7.25", fillcolor="#fdf6f0"] ;
645 -> 647 ;
648 [label="X[1] <= -0.055\nmse = 0.051\nsamples = 4\nvalue = 6.86", fillcolor="#fdf6f1"] ;
644 -> 648 ;
649 [label="mse = 0.0\nsamples = 1\nvalue = 7.25", fillcolor="#fdf6f0"] ;
648 -> 649 ;
650 [label="X[35] <= 0.5\nmse = 0.0\nsamples = 3\nvalue = 6.73", fillcolor="#fdf6f1"] ;
648 -> 650 ;
651 [label="mse = 0.0\nsamples = 1\nvalue = 6.75", fillcolor="#fdf6f1"] ;
650 -> 651 ;
652 [label="mse = 0.0\nsamples = 2\nvalue = 6.72", fillcolor="#fdf6f2"] ;
650 -> 652 ;
653 [label="mse = -0.0\nsamples = 1\nvalue = 7.95", fillcolor="#fdf5ef"] ;
643 -> 653 ;
654 [label="X[4] <= -0.716\nmse = 0.251\nsamples = 20\nvalue = 6.268", fillcolor="#fdf7f3"] ;
640 -> 654 ;
655 [label="X[1] <= 2.1\nmse = 0.113\nsamples = 8\nvalue = 6.501", fillcolor="#fdf7f2"] ;
654 -> 655 ;
656 [label="X[9] <= 0.5\nmse = 0.025\nsamples = 6\nvalue = 6.678", fillcolor="#fdf6f2"] ;
655 -> 656 ;
657 [label="X[5] <= -0.133\nmse = 0.005\nsamples = 5\nvalue = 6.614", fillcolor="#fdf7f2"] ;
656 -> 657 ;
658 [label="mse = 0.0\nsamples = 1\nvalue = 6.75", fillcolor="#fdf6f1"] ;
657 -> 658 ;
659 [label="X[1] <= 1.139\nmse = 0.001\nsamples = 4\nvalue = 6.58", fillcolor="#fdf7f2"] ;
657 -> 659 ;
660 [label="mse = 0.0\nsamples = 2\nvalue = 6.61", fillcolor="#fdf7f2"] ;
659 -> 660 ;
661 [label="mse = 0.0\nsamples = 2\nvalue = 6.55", fillcolor="#fdf7f2"] ;
659 -> 661 ;
662 [label="mse = 0.0\nsamples = 1\nvalue = 7.0", fillcolor="#fdf6f1"] ;
656 -> 662 ;
663 [label="mse = -0.0\nsamples = 2\nvalue = 5.97", fillcolor="#fdf8f3"] ;
655 -> 663 ;
664 [label="X[18] <= 0.5\nmse = 0.283\nsamples = 12\nvalue = 6.113", fillcolor="#fdf7f3"] ;
654 -> 664 ;
665 [label="X[26] <= 0.5\nmse = 0.216\nsamples = 9\nvalue = 6.304", fillcolor="#fdf7f2"] ;
664 -> 665 ;
666 [label="X[1] <= 0.426\nmse = 0.209\nsamples = 7\nvalue = 6.191", fillcolor="#fdf7f3"] ;
665 -> 666 ;
667 [label="mse = 0.533\nsamples = 2\nvalue = 6.48", fillcolor="#fdf7f2"] ;
666 -> 667 ;
668 [label="X[9] <= 0.5\nmse = 0.033\nsamples = 5\nvalue = 6.076", fillcolor="#fdf7f3"] ;
666 -> 668 ;
669 [label="X[3] <= -0.515\nmse = 0.022\nsamples = 3\nvalue = 5.96", fillcolor="#fdf8f3"] ;
668 -> 669 ;
670 [label="mse = 0.0\nsamples = 2\nvalue = 6.065", fillcolor="#fdf7f3"] ;
669 -> 670 ;
671 [label="mse = 0.0\nsamples = 1\nvalue = 5.75", fillcolor="#fef8f4"] ;
669 -> 671 ;
672 [label="mse = 0.0\nsamples = 2\nvalue = 6.25", fillcolor="#fdf7f3"] ;
668 -> 672 ;
673 [label="mse = 0.04\nsamples = 2\nvalue = 6.7", fillcolor="#fdf6f2"] ;
665 -> 673 ;
674 [label="X[13] <= 0.5\nmse = 0.041\nsamples = 3\nvalue = 5.537", fillcolor="#fef8f4"] ;
664 -> 674 ;
675 [label="mse = 0.0\nsamples = 1\nvalue = 5.25", fillcolor="#fef9f5"] ;
674 -> 675 ;
676 [label="mse = 0.0\nsamples = 2\nvalue = 5.68", fillcolor="#fef8f4"] ;
674 -> 676 ;
677 [label="X[15] <= 0.5\nmse = 0.416\nsamples = 9\nvalue = 7.096", fillcolor="#fdf6f1"] ;
639 -> 677 ;
678 [label="mse = 0.0\nsamples = 1\nvalue = 5.83", fillcolor="#fef8f4"] ;
677 -> 678 ;
679 [label="X[19] <= 0.5\nmse = 0.242\nsamples = 8\nvalue = 7.254", fillcolor="#fdf6f0"] ;
677 -> 679 ;
680 [label="X[2] <= 0.746\nmse = 0.104\nsamples = 3\nvalue = 7.7", fillcolor="#fdf5ef"] ;
679 -> 680 ;
681 [label="mse = 0.004\nsamples = 2\nvalue = 7.925", fillcolor="#fdf5ef"] ;
680 -> 681 ;
682 [label="mse = 0.0\nsamples = 1\nvalue = 7.25", fillcolor="#fdf6f0"] ;
680 -> 682 ;
683 [label="X[4] <= 0.476\nmse = 0.134\nsamples = 5\nvalue = 6.986", fillcolor="#fdf6f1"] ;
679 -> 683 ;
684 [label="mse = 0.0\nsamples = 1\nvalue = 7.65", fillcolor="#fdf5ef"] ;
683 -> 684 ;
685 [label="X[1] <= 1.488\nmse = 0.03\nsamples = 4\nvalue = 6.82", fillcolor="#fdf6f1"] ;
683 -> 685 ;
686 [label="X[4] <= 0.578\nmse = 0.002\nsamples = 3\nvalue = 6.917", fillcolor="#fdf6f1"] ;
685 -> 686 ;
687 [label="mse = 0.0\nsamples = 1\nvalue = 6.85", fillcolor="#fdf6f1"] ;
686 -> 687 ;
688 [label="mse = 0.0\nsamples = 2\nvalue = 6.95", fillcolor="#fdf6f1"] ;
686 -> 688 ;
689 [label="mse = 0.0\nsamples = 1\nvalue = 6.53", fillcolor="#fdf7f2"] ;
685 -> 689 ;
690 [label="X[3] <= -0.665\nmse = 1.174\nsamples = 63\nvalue = 5.998", fillcolor="#fdf8f3"] ;
618 -> 690 ;
691 [label="X[9] <= 0.5\nmse = 0.428\nsamples = 10\nvalue = 4.673", fillcolor="#fef9f6"] ;
690 -> 691 ;
692 [label="X[5] <= 0.53\nmse = 0.272\nsamples = 7\nvalue = 4.354", fillcolor="#fefaf7"] ;
691 -> 692 ;
693 [label="X[5] <= 0.206\nmse = 0.112\nsamples = 5\nvalue = 4.088", fillcolor="#fefaf8"] ;
692 -> 693 ;
694 [label="mse = 0.0\nsamples = 1\nvalue = 4.75", fillcolor="#fef9f6"] ;
693 -> 694 ;
695 [label="X[5] <= 0.309\nmse = 0.003\nsamples = 4\nvalue = 3.922", fillcolor="#fefbf8"] ;
693 -> 695 ;
696 [label="mse = 0.001\nsamples = 2\nvalue = 3.875", fillcolor="#fefbf8"] ;
695 -> 696 ;
697 [label="mse = 0.0\nsamples = 2\nvalue = 3.97", fillcolor="#fefbf8"] ;
695 -> 697 ;
698 [label="mse = 0.053\nsamples = 2\nvalue = 5.02", fillcolor="#fef9f6"] ;
692 -> 698 ;
699 [label="X[5] <= 0.177\nmse = 0.002\nsamples = 3\nvalue = 5.417", fillcolor="#fef8f5"] ;
691 -> 699 ;
700 [label="mse = 0.0\nsamples = 2\nvalue = 5.45", fillcolor="#fef8f5"] ;
699 -> 700 ;
701 [label="mse = 0.0\nsamples = 1\nvalue = 5.35", fillcolor="#fef8f5"] ;
699 -> 701 ;
702 [label="X[1] <= -0.31\nmse = 0.921\nsamples = 53\nvalue = 6.248", fillcolor="#fdf7f3"] ;
690 -> 702 ;
703 [label="X[2] <= 1.424\nmse = 0.924\nsamples = 8\nvalue = 7.302", fillcolor="#fdf6f0"] ;
702 -> 703 ;
704 [label="X[5] <= 0.25\nmse = 0.167\nsamples = 6\nvalue = 6.787", fillcolor="#fdf6f1"] ;
703 -> 704 ;
705 [label="mse = 0.0\nsamples = 1\nvalue = 7.58", fillcolor="#fdf5ef"] ;
704 -> 705 ;
706 [label="X[25] <= 0.5\nmse = 0.05\nsamples = 5\nvalue = 6.628", fillcolor="#fdf7f2"] ;
704 -> 706 ;
707 [label="X[1] <= -0.701\nmse = 0.017\nsamples = 4\nvalue = 6.722", fillcolor="#fdf6f2"] ;
706 -> 707 ;
708 [label="mse = 0.0\nsamples = 1\nvalue = 6.5", fillcolor="#fdf7f2"] ;
707 -> 708 ;
709 [label="X[1] <= -0.421\nmse = 0.001\nsamples = 3\nvalue = 6.797", fillcolor="#fdf6f1"] ;
707 -> 709 ;
710 [label="mse = 0.0\nsamples = 1\nvalue = 6.75", fillcolor="#fdf6f1"] ;
709 -> 710 ;
711 [label="mse = 0.0\nsamples = 2\nvalue = 6.82", fillcolor="#fdf6f1"] ;
709 -> 711 ;
712 [label="mse = 0.0\nsamples = 1\nvalue = 6.25", fillcolor="#fdf7f3"] ;
706 -> 712 ;
713 [label="mse = -0.0\nsamples = 2\nvalue = 8.85", fillcolor="#fdf3ec"] ;
703 -> 713 ;
714 [label="X[13] <= 0.5\nmse = 0.688\nsamples = 45\nvalue = 6.061", fillcolor="#fdf7f3"] ;
702 -> 714 ;
715 [label="X[5] <= 0.279\nmse = 0.641\nsamples = 21\nvalue = 5.546", fillcolor="#fef8f4"] ;
714 -> 715 ;
716 [label="mse = 0.002\nsamples = 2\nvalue = 7.2", fillcolor="#fdf6f0"] ;
715 -> 716 ;
717 [label="X[5] <= 0.353\nmse = 0.389\nsamples = 19\nvalue = 5.372", fillcolor="#fef8f5"] ;
715 -> 717 ;
718 [label="X[1] <= 1.255\nmse = 0.644\nsamples = 6\nvalue = 5.765", fillcolor="#fef8f4"] ;
717 -> 718 ;
719 [label="X[4] <= -0.709\nmse = 0.336\nsamples = 3\nvalue = 6.32", fillcolor="#fdf7f2"] ;
718 -> 719 ;
720 [label="mse = 0.0\nsamples = 1\nvalue = 7.1", fillcolor="#fdf6f1"] ;
719 -> 720 ;
721 [label="mse = 0.048\nsamples = 2\nvalue = 5.93", fillcolor="#fdf8f3"] ;
719 -> 721 ;
722 [label="X[1] <= 2.28\nmse = 0.335\nsamples = 3\nvalue = 5.21", fillcolor="#fef9f5"] ;
718 -> 722 ;
723 [label="mse = 0.034\nsamples = 2\nvalue = 4.815", fillcolor="#fef9f6"] ;
722 -> 723 ;
724 [label="mse = 0.0\nsamples = 1\nvalue = 6.0", fillcolor="#fdf7f3"] ;
722 -> 724 ;
725 [label="X[5] <= 0.722\nmse = 0.168\nsamples = 13\nvalue = 5.19", fillcolor="#fef9f5"] ;
717 -> 725 ;
726 [label="X[1] <= 0.253\nmse = 0.109\nsamples = 10\nvalue = 5.052", fillcolor="#fef9f5"] ;
725 -> 726 ;
727 [label="X[2] <= 2.297\nmse = 0.051\nsamples = 4\nvalue = 5.37", fillcolor="#fef8f5"] ;
726 -> 727 ;
728 [label="mse = 0.0\nsamples = 3\nvalue = 5.5", fillcolor="#fef8f4"] ;
727 -> 728 ;
729 [label="mse = -0.0\nsamples = 1\nvalue = 4.98", fillcolor="#fef9f6"] ;
727 -> 729 ;
730 [label="X[2] <= 1.218\nmse = 0.036\nsamples = 6\nvalue = 4.84", fillcolor="#fef9f6"] ;
726 -> 730 ;
731 [label="X[4] <= -0.096\nmse = 0.008\nsamples = 4\nvalue = 4.962", fillcolor="#fef9f6"] ;
730 -> 731 ;
732 [label="mse = 0.0\nsamples = 1\nvalue = 5.1", fillcolor="#fef9f5"] ;
731 -> 732 ;
733 [label="X[24] <= 0.5\nmse = 0.002\nsamples = 3\nvalue = 4.917", fillcolor="#fef9f6"] ;
731 -> 733 ;
734 [label="mse = 0.0\nsamples = 1\nvalue = 4.85", fillcolor="#fef9f6"] ;
733 -> 734 ;
735 [label="mse = 0.0\nsamples = 2\nvalue = 4.95", fillcolor="#fef9f6"] ;
733 -> 735 ;
736 [label="mse = 0.002\nsamples = 2\nvalue = 4.595", fillcolor="#fefaf7"] ;
730 -> 736 ;
737 [label="X[1] <= 1.195\nmse = 0.087\nsamples = 3\nvalue = 5.65", fillcolor="#fef8f4"] ;
725 -> 737 ;
738 [label="mse = 0.0\nsamples = 1\nvalue = 5.25", fillcolor="#fef9f5"] ;
737 -> 738 ;
739 [label="mse = 0.01\nsamples = 2\nvalue = 5.85", fillcolor="#fdf8f4"] ;
737 -> 739 ;
740 [label="X[39] <= 0.5\nmse = 0.294\nsamples = 24\nvalue = 6.511", fillcolor="#fdf7f2"] ;
714 -> 740 ;
741 [label="X[0] <= 1.308\nmse = 0.206\nsamples = 22\nvalue = 6.609", fillcolor="#fdf7f2"] ;
740 -> 741 ;
742 [label="X[1] <= 0.17\nmse = 0.091\nsamples = 19\nvalue = 6.497", fillcolor="#fdf7f2"] ;
741 -> 742 ;
743 [label="X[2] <= -0.416\nmse = 0.06\nsamples = 6\nvalue = 6.712", fillcolor="#fdf6f2"] ;
742 -> 743 ;
744 [label="mse = 0.0\nsamples = 1\nvalue = 6.33", fillcolor="#fdf7f2"] ;
743 -> 744 ;
745 [label="X[9] <= 0.5\nmse = 0.037\nsamples = 5\nvalue = 6.788", fillcolor="#fdf6f1"] ;
743 -> 745 ;
746 [label="X[2] <= 0.493\nmse = 0.021\nsamples = 4\nvalue = 6.86", fillcolor="#fdf6f1"] ;
745 -> 746 ;
747 [label="X[2] <= 0.049\nmse = 0.0\nsamples = 3\nvalue = 6.943", fillcolor="#fdf6f1"] ;
746 -> 747 ;
748 [label="mse = 0.0\nsamples = 2\nvalue = 6.95", fillcolor="#fdf6f1"] ;
747 -> 748 ;
749 [label="mse = -0.0\nsamples = 1\nvalue = 6.93", fillcolor="#fdf6f1"] ;
747 -> 749 ;
750 [label="mse = 0.0\nsamples = 1\nvalue = 6.61", fillcolor="#fdf7f2"] ;
746 -> 750 ;
751 [label="mse = 0.0\nsamples = 1\nvalue = 6.5", fillcolor="#fdf7f2"] ;
745 -> 751 ;
752 [label="X[5] <= 0.531\nmse = 0.073\nsamples = 13\nvalue = 6.398", fillcolor="#fdf7f2"] ;
742 -> 752 ;
753 [label="X[5] <= 0.441\nmse = 0.048\nsamples = 6\nvalue = 6.625", fillcolor="#fdf7f2"] ;
752 -> 753 ;
754 [label="X[5] <= 0.221\nmse = 0.034\nsamples = 4\nvalue = 6.513", fillcolor="#fdf7f2"] ;
753 -> 754 ;
755 [label="mse = 0.0\nsamples = 1\nvalue = 6.82", fillcolor="#fdf6f1"] ;
754 -> 755 ;
756 [label="X[24] <= 0.5\nmse = 0.003\nsamples = 3\nvalue = 6.41", fillcolor="#fdf7f2"] ;
754 -> 756 ;
757 [label="mse = 0.0\nsamples = 2\nvalue = 6.37", fillcolor="#fdf7f2"] ;
756 -> 757 ;
758 [label="mse = -0.0\nsamples = 1\nvalue = 6.49", fillcolor="#fdf7f2"] ;
756 -> 758 ;
759 [label="mse = -0.0\nsamples = 2\nvalue = 6.85", fillcolor="#fdf6f1"] ;
753 -> 759 ;
760 [label="X[42] <= 0.5\nmse = 0.014\nsamples = 7\nvalue = 6.204", fillcolor="#fdf7f3"] ;
752 -> 760 ;
761 [label="X[10] <= 0.5\nmse = 0.003\nsamples = 6\nvalue = 6.247", fillcolor="#fdf7f3"] ;
760 -> 761 ;
762 [label="X[2] <= -0.047\nmse = 0.002\nsamples = 5\nvalue = 6.266", fillcolor="#fdf7f3"] ;
761 -> 762 ;
763 [label="X[6] <= 0.5\nmse = 0.0\nsamples = 4\nvalue = 6.245", fillcolor="#fdf7f3"] ;
762 -> 763 ;
764 [label="mse = 0.0\nsamples = 2\nvalue = 6.25", fillcolor="#fdf7f3"] ;
763 -> 764 ;
765 [label="mse = -0.0\nsamples = 2\nvalue = 6.24", fillcolor="#fdf7f3"] ;
763 -> 765 ;
766 [label="mse = -0.0\nsamples = 1\nvalue = 6.35", fillcolor="#fdf7f2"] ;
762 -> 766 ;
767 [label="mse = 0.0\nsamples = 1\nvalue = 6.15", fillcolor="#fdf7f3"] ;
761 -> 767 ;
768 [label="mse = 0.0\nsamples = 1\nvalue = 5.95", fillcolor="#fdf8f3"] ;
760 -> 768 ;
769 [label="X[5] <= 0.589\nmse = 0.366\nsamples = 3\nvalue = 7.313", fillcolor="#fdf6f0"] ;
741 -> 769 ;
770 [label="mse = 0.053\nsamples = 2\nvalue = 7.72", fillcolor="#fdf5ef"] ;
769 -> 770 ;
771 [label="mse = 0.0\nsamples = 1\nvalue = 6.5", fillcolor="#fdf7f2"] ;
769 -> 771 ;
772 [label="mse = 0.0\nsamples = 2\nvalue = 5.44", fillcolor="#fef8f5"] ;
740 -> 772 ;
773 [label="X[36] <= 0.5\nmse = 2.896\nsamples = 31\nvalue = 8.766", fillcolor="#fdf3ed"] ;
613 -> 773 ;
774 [label="X[5] <= 0.162\nmse = 1.984\nsamples = 29\nvalue = 8.498", fillcolor="#fdf4ed"] ;
773 -> 774 ;
775 [label="X[19] <= 0.5\nmse = 1.112\nsamples = 15\nvalue = 9.267", fillcolor="#fcf3ec"] ;
774 -> 775 ;
776 [label="X[1] <= -0.537\nmse = 1.01\nsamples = 6\nvalue = 10.078", fillcolor="#fcf1ea"] ;
775 -> 776 ;
777 [label="mse = 0.0\nsamples = 1\nvalue = 11.35", fillcolor="#fcefe7"] ;
776 -> 777 ;
778 [label="X[4] <= -0.667\nmse = 0.824\nsamples = 5\nvalue = 9.824", fillcolor="#fcf2ea"] ;
776 -> 778 ;
779 [label="X[5] <= 0.073\nmse = 0.256\nsamples = 3\nvalue = 9.157", fillcolor="#fcf3ec"] ;
778 -> 779 ;
780 [label="mse = 0.002\nsamples = 2\nvalue = 8.8", fillcolor="#fdf3ed"] ;
779 -> 780 ;
781 [label="mse = 0.0\nsamples = 1\nvalue = 9.87", fillcolor="#fcf2ea"] ;
779 -> 781 ;
782 [label="mse = 0.006\nsamples = 2\nvalue = 10.825", fillcolor="#fcf0e8"] ;
778 -> 782 ;
783 [label="X[15] <= 0.5\nmse = 0.447\nsamples = 9\nvalue = 8.726", fillcolor="#fdf3ed"] ;
775 -> 783 ;
784 [label="mse = 0.0\nsamples = 1\nvalue = 7.45", fillcolor="#fdf5f0"] ;
783 -> 784 ;
785 [label="X[1] <= 1.072\nmse = 0.274\nsamples = 8\nvalue = 8.885", fillcolor="#fdf3ec"] ;
783 -> 785 ;
786 [label="X[5] <= 0.117\nmse = 0.149\nsamples = 7\nvalue = 9.029", fillcolor="#fdf3ec"] ;
785 -> 786 ;
787 [label="X[5] <= -0.177\nmse = 0.084\nsamples = 6\nvalue = 9.142", fillcolor="#fcf3ec"] ;
786 -> 787 ;
788 [label="X[13] <= 0.5\nmse = 0.002\nsamples = 4\nvalue = 9.26", fillcolor="#fcf3ec"] ;
787 -> 788 ;
789 [label="mse = 0.0\nsamples = 2\nvalue = 9.22", fillcolor="#fcf3ec"] ;
788 -> 789 ;
790 [label="mse = -0.0\nsamples = 2\nvalue = 9.3", fillcolor="#fcf3eb"] ;
788 -> 790 ;
791 [label="mse = 0.164\nsamples = 2\nvalue = 8.905", fillcolor="#fdf3ec"] ;
787 -> 791 ;
792 [label="mse = 0.0\nsamples = 1\nvalue = 8.35", fillcolor="#fdf4ee"] ;
786 -> 792 ;
793 [label="mse = -0.0\nsamples = 1\nvalue = 7.88", fillcolor="#fdf5ef"] ;
785 -> 793 ;
794 [label="X[5] <= 0.677\nmse = 1.607\nsamples = 14\nvalue = 7.674", fillcolor="#fdf5ef"] ;
774 -> 794 ;
795 [label="X[4] <= -0.683\nmse = 0.908\nsamples = 12\nvalue = 8.019", fillcolor="#fdf4ee"] ;
794 -> 795 ;
796 [label="mse = 0.0\nsamples = 1\nvalue = 5.8", fillcolor="#fef8f4"] ;
795 -> 796 ;
797 [label="X[2] <= -0.285\nmse = 0.502\nsamples = 11\nvalue = 8.221", fillcolor="#fdf4ee"] ;
795 -> 797 ;
798 [label="X[1] <= 0.084\nmse = 0.257\nsamples = 9\nvalue = 8.464", fillcolor="#fdf4ed"] ;
797 -> 798 ;
799 [label="mse = 0.04\nsamples = 2\nvalue = 7.95", fillcolor="#fdf5ef"] ;
798 -> 799 ;
800 [label="X[2] <= -1.112\nmse = 0.221\nsamples = 7\nvalue = 8.611", fillcolor="#fdf4ed"] ;
798 -> 800 ;
801 [label="mse = 0.141\nsamples = 2\nvalue = 9.025", fillcolor="#fdf3ec"] ;
800 -> 801 ;
802 [label="X[15] <= 0.5\nmse = 0.158\nsamples = 5\nvalue = 8.446", fillcolor="#fdf4ed"] ;
800 -> 802 ;
803 [label="mse = 0.0\nsamples = 1\nvalue = 9.12", fillcolor="#fcf3ec"] ;
802 -> 803 ;
804 [label="X[1] <= 0.446\nmse = 0.055\nsamples = 4\nvalue = 8.278", fillcolor="#fdf4ee"] ;
802 -> 804 ;
805 [label="mse = 0.0\nsamples = 2\nvalue = 8.5", fillcolor="#fdf4ed"] ;
804 -> 805 ;
806 [label="mse = 0.011\nsamples = 2\nvalue = 8.055", fillcolor="#fdf4ee"] ;
804 -> 806 ;
807 [label="mse = 0.141\nsamples = 2\nvalue = 7.125", fillcolor="#fdf6f1"] ;
797 -> 807 ;
808 [label="mse = 0.801\nsamples = 2\nvalue = 5.605", fillcolor="#fef8f4"] ;
794 -> 808 ;
809 [label="mse = 0.0\nsamples = 2\nvalue = 12.65", fillcolor="#fbeee4"] ;
773 -> 809 ;
810 [label="X[2] <= -1.328\nmse = 3.934\nsamples = 73\nvalue = 4.868", fillcolor="#fef9f6"] ;
612 -> 810 ;
811 [label="X[5] <= 1.489\nmse = 3.901\nsamples = 4\nvalue = 10.475", fillcolor="#fcf1e9"] ;
810 -> 811 ;
812 [label="mse = 0.0\nsamples = 2\nvalue = 8.5", fillcolor="#fdf4ed"] ;
811 -> 812 ;
813 [label="mse = -0.0\nsamples = 2\nvalue = 12.45", fillcolor="#fbeee4"] ;
811 -> 813 ;
814 [label="X[5] <= 1.372\nmse = 2.008\nsamples = 69\nvalue = 4.542", fillcolor="#fefaf7"] ;
810 -> 814 ;
815 [label="X[41] <= 0.5\nmse = 1.29\nsamples = 39\nvalue = 5.305", fillcolor="#fef9f5"] ;
814 -> 815 ;
816 [label="X[39] <= 0.5\nmse = 1.016\nsamples = 37\nvalue = 5.437", fillcolor="#fef8f5"] ;
815 -> 816 ;
817 [label="X[2] <= -0.342\nmse = 0.868\nsamples = 36\nvalue = 5.506", fillcolor="#fef8f4"] ;
816 -> 817 ;
818 [label="X[18] <= 0.5\nmse = 1.662\nsamples = 6\nvalue = 4.642", fillcolor="#fefaf6"] ;
817 -> 818 ;
819 [label="X[1] <= 0.086\nmse = 0.035\nsamples = 3\nvalue = 3.483", fillcolor="#fefbf9"] ;
818 -> 819 ;
820 [label="mse = 0.0\nsamples = 1\nvalue = 3.74", fillcolor="#fefbf9"] ;
819 -> 820 ;
821 [label="mse = 0.003\nsamples = 2\nvalue = 3.355", fillcolor="#fefbf9"] ;
819 -> 821 ;
822 [label="X[1] <= 0.309\nmse = 0.605\nsamples = 3\nvalue = 5.8", fillcolor="#fef8f4"] ;
818 -> 822 ;
823 [label="mse = 0.0\nsamples = 2\nvalue = 5.25", fillcolor="#fef9f5"] ;
822 -> 823 ;
824 [label="mse = 0.0\nsamples = 1\nvalue = 6.9", fillcolor="#fdf6f1"] ;
822 -> 824 ;
825 [label="X[4] <= -0.777\nmse = 0.53\nsamples = 30\nvalue = 5.679", fillcolor="#fef8f4"] ;
817 -> 825 ;
826 [label="mse = 0.0\nsamples = 1\nvalue = 3.47", fillcolor="#fefbf9"] ;
825 -> 826 ;
827 [label="X[1] <= 1.32\nmse = 0.374\nsamples = 29\nvalue = 5.756", fillcolor="#fef8f4"] ;
825 -> 827 ;
828 [label="X[9] <= 0.5\nmse = 0.309\nsamples = 21\nvalue = 5.937", fillcolor="#fdf8f3"] ;
827 -> 828 ;
829 [label="X[5] <= 0.87\nmse = 0.313\nsamples = 16\nvalue = 5.792", fillcolor="#fef8f4"] ;
828 -> 829 ;
830 [label="X[1] <= 0.707\nmse = 0.187\nsamples = 5\nvalue = 6.228", fillcolor="#fdf7f3"] ;
829 -> 830 ;
831 [label="X[1] <= 0.272\nmse = 0.068\nsamples = 4\nvalue = 6.41", fillcolor="#fdf7f2"] ;
830 -> 831 ;
832 [label="mse = 0.0\nsamples = 1\nvalue = 6.86", fillcolor="#fdf6f1"] ;
831 -> 832 ;
833 [label="X[26] <= 0.5\nmse = 0.0\nsamples = 3\nvalue = 6.26", fillcolor="#fdf7f3"] ;
831 -> 833 ;
834 [label="mse = 0.0\nsamples = 2\nvalue = 6.25", fillcolor="#fdf7f3"] ;
833 -> 834 ;
835 [label="mse = -0.0\nsamples = 1\nvalue = 6.28", fillcolor="#fdf7f3"] ;
833 -> 835 ;
836 [label="mse = 0.0\nsamples = 1\nvalue = 5.5", fillcolor="#fef8f4"] ;
830 -> 836 ;
837 [label="X[2] <= -0.126\nmse = 0.244\nsamples = 11\nvalue = 5.595", fillcolor="#fef8f4"] ;
829 -> 837 ;
838 [label="X[0] <= 1.308\nmse = 0.119\nsamples = 3\nvalue = 5.11", fillcolor="#fef9f5"] ;
837 -> 838 ;
839 [label="mse = 0.027\nsamples = 2\nvalue = 5.335", fillcolor="#fef8f5"] ;
838 -> 839 ;
840 [label="mse = 0.0\nsamples = 1\nvalue = 4.66", fillcolor="#fefaf6"] ;
838 -> 840 ;
841 [label="X[5] <= 1.239\nmse = 0.17\nsamples = 8\nvalue = 5.776", fillcolor="#fef8f4"] ;
837 -> 841 ;
842 [label="X[3] <= -0.281\nmse = 0.119\nsamples = 6\nvalue = 5.613", fillcolor="#fef8f4"] ;
841 -> 842 ;
843 [label="mse = 0.0\nsamples = 1\nvalue = 4.89", fillcolor="#fef9f6"] ;
842 -> 843 ;
844 [label="X[13] <= 0.5\nmse = 0.017\nsamples = 5\nvalue = 5.758", fillcolor="#fef8f4"] ;
842 -> 844 ;
845 [label="mse = 0.0\nsamples = 2\nvalue = 5.9", fillcolor="#fdf8f3"] ;
844 -> 845 ;
846 [label="X[1] <= 0.152\nmse = 0.006\nsamples = 3\nvalue = 5.663", fillcolor="#fef8f4"] ;
844 -> 846 ;
847 [label="mse = 0.0\nsamples = 2\nvalue = 5.72", fillcolor="#fef8f4"] ;
846 -> 847 ;
848 [label="mse = -0.0\nsamples = 1\nvalue = 5.55", fillcolor="#fef8f4"] ;
846 -> 848 ;
849 [label="mse = 0.006\nsamples = 2\nvalue = 6.265", fillcolor="#fdf7f3"] ;
841 -> 849 ;
850 [label="X[12] <= 0.5\nmse = 0.015\nsamples = 5\nvalue = 6.4", fillcolor="#fdf7f2"] ;
828 -> 850 ;
851 [label="mse = 0.0\nsamples = 2\nvalue = 6.25", fillcolor="#fdf7f3"] ;
850 -> 851 ;
852 [label="mse = 0.0\nsamples = 3\nvalue = 6.5", fillcolor="#fdf7f2"] ;
850 -> 852 ;
853 [label="X[15] <= 0.5\nmse = 0.23\nsamples = 8\nvalue = 5.279", fillcolor="#fef9f5"] ;
827 -> 853 ;
854 [label="mse = 0.0\nsamples = 2\nvalue = 4.75", fillcolor="#fef9f6"] ;
853 -> 854 ;
855 [label="X[5] <= 0.856\nmse = 0.183\nsamples = 6\nvalue = 5.455", fillcolor="#fef8f4"] ;
853 -> 855 ;
856 [label="mse = 0.0\nsamples = 1\nvalue = 4.61", fillcolor="#fefaf6"] ;
855 -> 856 ;
857 [label="X[3] <= -0.309\nmse = 0.048\nsamples = 5\nvalue = 5.624", fillcolor="#fef8f4"] ;
855 -> 857 ;
858 [label="mse = 0.0\nsamples = 1\nvalue = 5.25", fillcolor="#fef9f5"] ;
857 -> 858 ;
859 [label="X[0] <= 1.308\nmse = 0.016\nsamples = 4\nvalue = 5.717", fillcolor="#fef8f4"] ;
857 -> 859 ;
860 [label="X[12] <= 0.5\nmse = 0.001\nsamples = 3\nvalue = 5.79", fillcolor="#fef8f4"] ;
859 -> 860 ;
861 [label="mse = 0.0\nsamples = 2\nvalue = 5.81", fillcolor="#fef8f4"] ;
860 -> 861 ;
862 [label="mse = 0.0\nsamples = 1\nvalue = 5.75", fillcolor="#fef8f4"] ;
860 -> 862 ;
863 [label="mse = 0.0\nsamples = 1\nvalue = 5.5", fillcolor="#fef8f4"] ;
859 -> 863 ;
864 [label="mse = 0.0\nsamples = 1\nvalue = 2.95", fillcolor="#fefcfa"] ;
816 -> 864 ;
865 [label="mse = -0.0\nsamples = 2\nvalue = 2.85", fillcolor="#fefcfb"] ;
815 -> 865 ;
866 [label="X[5] <= 2.286\nmse = 1.205\nsamples = 30\nvalue = 3.552", fillcolor="#fefbf9"] ;
814 -> 866 ;
867 [label="X[41] <= 0.5\nmse = 0.691\nsamples = 25\nvalue = 3.894", fillcolor="#fefbf8"] ;
866 -> 867 ;
868 [label="X[45] <= 0.5\nmse = 0.501\nsamples = 22\nvalue = 4.064", fillcolor="#fefaf8"] ;
867 -> 868 ;
869 [label="X[3] <= -0.041\nmse = 0.403\nsamples = 21\nvalue = 4.138", fillcolor="#fefaf8"] ;
868 -> 869 ;
870 [label="X[39] <= 0.5\nmse = 0.369\nsamples = 18\nvalue = 4.019", fillcolor="#fefaf8"] ;
869 -> 870 ;
871 [label="X[4] <= -0.143\nmse = 0.326\nsamples = 17\nvalue = 4.079", fillcolor="#fefaf8"] ;
870 -> 871 ;
872 [label="X[5] <= 1.548\nmse = 0.291\nsamples = 12\nvalue = 4.221", fillcolor="#fefaf7"] ;
871 -> 872 ;
873 [label="X[4] <= -0.689\nmse = 0.368\nsamples = 4\nvalue = 4.555", fillcolor="#fefaf7"] ;
872 -> 873 ;
874 [label="X[15] <= 0.5\nmse = 0.05\nsamples = 3\nvalue = 4.223", fillcolor="#fefaf7"] ;
873 -> 874 ;
875 [label="mse = 0.018\nsamples = 2\nvalue = 4.085", fillcolor="#fefaf8"] ;
874 -> 875 ;
876 [label="mse = 0.0\nsamples = 1\nvalue = 4.5", fillcolor="#fefaf7"] ;
874 -> 876 ;
877 [label="mse = 0.0\nsamples = 1\nvalue = 5.55", fillcolor="#fef8f4"] ;
873 -> 877 ;
878 [label="X[5] <= 1.784\nmse = 0.168\nsamples = 8\nvalue = 4.054", fillcolor="#fefaf8"] ;
872 -> 878 ;
879 [label="mse = 0.009\nsamples = 2\nvalue = 3.655", fillcolor="#fefbf9"] ;
878 -> 879 ;
880 [label="X[1] <= -0.07\nmse = 0.151\nsamples = 6\nvalue = 4.187", fillcolor="#fefaf7"] ;
878 -> 880 ;
881 [label="mse = 0.325\nsamples = 2\nvalue = 3.96", fillcolor="#fefbf8"] ;
880 -> 881 ;
882 [label="X[35] <= 0.5\nmse = 0.025\nsamples = 4\nvalue = 4.3", fillcolor="#fefaf7"] ;
880 -> 882 ;
883 [label="mse = 0.002\nsamples = 2\nvalue = 4.45", fillcolor="#fefaf7"] ;
882 -> 883 ;
884 [label="mse = 0.002\nsamples = 2\nvalue = 4.15", fillcolor="#fefaf8"] ;
882 -> 884 ;
885 [label="X[1] <= 0.37\nmse = 0.246\nsamples = 5\nvalue = 3.74", fillcolor="#fefbf9"] ;
871 -> 885 ;
886 [label="mse = 0.0\nsamples = 1\nvalue = 2.8", fillcolor="#fefcfb"] ;
885 -> 886 ;
887 [label="X[1] <= 0.852\nmse = 0.032\nsamples = 4\nvalue = 3.975", fillcolor="#fefbf8"] ;
885 -> 887 ;
888 [label="mse = 0.0\nsamples = 1\nvalue = 4.25", fillcolor="#fefaf7"] ;
887 -> 888 ;
889 [label="X[2] <= 1.182\nmse = 0.009\nsamples = 3\nvalue = 3.883", fillcolor="#fefbf8"] ;
887 -> 889 ;
890 [label="mse = 0.0\nsamples = 2\nvalue = 3.95", fillcolor="#fefbf8"] ;
889 -> 890 ;
891 [label="mse = -0.0\nsamples = 1\nvalue = 3.75", fillcolor="#fefbf9"] ;
889 -> 891 ;
892 [label="mse = 0.0\nsamples = 1\nvalue = 3.0", fillcolor="#fefcfa"] ;
870 -> 892 ;
893 [label="X[2] <= -0.378\nmse = 0.02\nsamples = 3\nvalue = 4.85", fillcolor="#fef9f6"] ;
869 -> 893 ;
894 [label="mse = 0.0\nsamples = 2\nvalue = 4.95", fillcolor="#fef9f6"] ;
893 -> 894 ;
895 [label="mse = -0.0\nsamples = 1\nvalue = 4.65", fillcolor="#fefaf6"] ;
893 -> 895 ;
896 [label="mse = -0.0\nsamples = 1\nvalue = 2.5", fillcolor="#fffdfb"] ;
868 -> 896 ;
897 [label="X[2] <= 0.6\nmse = 0.32\nsamples = 3\nvalue = 2.65", fillcolor="#fefdfb"] ;
867 -> 897 ;
898 [label="mse = 0.0\nsamples = 1\nvalue = 3.45", fillcolor="#fefbf9"] ;
897 -> 898 ;
899 [label="mse = 0.0\nsamples = 2\nvalue = 2.25", fillcolor="#fffdfc"] ;
897 -> 899 ;
900 [label="X[17] <= 0.5\nmse = 0.259\nsamples = 5\nvalue = 1.84", fillcolor="#fffefd"] ;
866 -> 900 ;
901 [label="X[2] <= -0.486\nmse = 0.104\nsamples = 4\nvalue = 2.05", fillcolor="#fffdfd"] ;
900 -> 901 ;
902 [label="mse = 0.0\nsamples = 1\nvalue = 1.55", fillcolor="#fffefe"] ;
901 -> 902 ;
903 [label="X[1] <= 1.015\nmse = 0.027\nsamples = 3\nvalue = 2.217", fillcolor="#fffdfc"] ;
901 -> 903 ;
904 [label="mse = 0.006\nsamples = 2\nvalue = 2.325", fillcolor="#fffdfc"] ;
903 -> 904 ;
905 [label="mse = 0.0\nsamples = 1\nvalue = 2.0", fillcolor="#fffefd"] ;
903 -> 905 ;
906 [label="mse = 0.0\nsamples = 1\nvalue = 1.0", fillcolor="#ffffff"] ;
900 -> 906 ;
907 [label="X[4] <= 1.779\nmse = 96.116\nsamples = 25\nvalue = 19.95", fillcolor="#f9e3d2"] ;
1 -> 907 ;
908 [label="X[20] <= 0.5\nmse = 31.369\nsamples = 24\nvalue = 18.292", fillcolor="#fae5d6"] ;
907 -> 908 ;
909 [label="X[4] <= 1.5\nmse = 20.279\nsamples = 18\nvalue = 16.051", fillcolor="#fae8dc"] ;
908 -> 909 ;
910 [label="X[4] <= 1.293\nmse = 3.139\nsamples = 15\nvalue = 14.897", fillcolor="#fbeade"] ;
909 -> 910 ;
911 [label="X[1] <= -1.276\nmse = 1.485\nsamples = 12\nvalue = 14.255", fillcolor="#fbebe0"] ;
910 -> 911 ;
912 [label="mse = 0.0\nsamples = 2\nvalue = 16.5", fillcolor="#fae8da"] ;
911 -> 912 ;
913 [label="X[26] <= 0.5\nmse = 0.573\nsamples = 10\nvalue = 13.806", fillcolor="#fbece1"] ;
911 -> 913 ;
914 [label="X[5] <= -0.709\nmse = 0.091\nsamples = 8\nvalue = 13.452", fillcolor="#fbece2"] ;
913 -> 914 ;
915 [label="X[6] <= 0.5\nmse = 0.043\nsamples = 5\nvalue = 13.268", fillcolor="#fbede2"] ;
914 -> 915 ;
916 [label="mse = 0.0\nsamples = 1\nvalue = 12.9", fillcolor="#fbede3"] ;
915 -> 916 ;
917 [label="X[1] <= -0.549\nmse = 0.011\nsamples = 4\nvalue = 13.36", fillcolor="#fbece2"] ;
915 -> 917 ;
918 [label="mse = 0.0\nsamples = 1\nvalue = 13.2", fillcolor="#fbede2"] ;
917 -> 918 ;
919 [label="X[30] <= 0.5\nmse = 0.004\nsamples = 3\nvalue = 13.413", fillcolor="#fbece2"] ;
917 -> 919 ;
920 [label="mse = 0.0\nsamples = 2\nvalue = 13.37", fillcolor="#fbece2"] ;
919 -> 920 ;
921 [label="mse = 0.0\nsamples = 1\nvalue = 13.5", fillcolor="#fbece2"] ;
919 -> 921 ;
922 [label="X[19] <= 0.5\nmse = 0.02\nsamples = 3\nvalue = 13.76", fillcolor="#fbece1"] ;
914 -> 922 ;
923 [label="mse = 0.0\nsamples = 2\nvalue = 13.86", fillcolor="#fbece1"] ;
922 -> 923 ;
924 [label="mse = -0.0\nsamples = 1\nvalue = 13.56", fillcolor="#fbece1"] ;
922 -> 924 ;
925 [label="mse = 0.0\nsamples = 2\nvalue = 15.22", fillcolor="#fbeadd"] ;
913 -> 925 ;
926 [label="X[19] <= 0.5\nmse = 1.501\nsamples = 3\nvalue = 17.467", fillcolor="#fae6d8"] ;
910 -> 926 ;
927 [label="mse = 0.526\nsamples = 2\nvalue = 18.225", fillcolor="#fae5d6"] ;
926 -> 927 ;
928 [label="mse = -0.0\nsamples = 1\nvalue = 15.95", fillcolor="#fae9dc"] ;
926 -> 928 ;
929 [label="X[5] <= -0.03\nmse = 66.084\nsamples = 3\nvalue = 21.817", fillcolor="#f9e0ce"] ;
909 -> 929 ;
930 [label="mse = 10.562\nsamples = 2\nvalue = 27.25", fillcolor="#f7d8c1"] ;
929 -> 930 ;
931 [label="mse = -0.0\nsamples = 1\nvalue = 10.95", fillcolor="#fcf0e8"] ;
929 -> 931 ;
932 [label="X[5] <= -0.118\nmse = 4.367\nsamples = 6\nvalue = 25.015", fillcolor="#f8dbc6"] ;
908 -> 932 ;
933 [label="mse = 0.0\nsamples = 1\nvalue = 21.0", fillcolor="#f9e1d0"] ;
932 -> 933 ;
934 [label="X[10] <= 0.5\nmse = 1.372\nsamples = 5\nvalue = 25.818", fillcolor="#f7dac5"] ;
932 -> 934 ;
935 [label="X[2] <= -0.188\nmse = 0.008\nsamples = 3\nvalue = 24.863", fillcolor="#f8dbc7"] ;
934 -> 935 ;
936 [label="mse = 0.0\nsamples = 1\nvalue = 24.99", fillcolor="#f8dbc6"] ;
935 -> 936 ;
937 [label="mse = -0.0\nsamples = 2\nvalue = 24.8", fillcolor="#f8dbc7"] ;
935 -> 937 ;
938 [label="mse = 0.0\nsamples = 2\nvalue = 27.25", fillcolor="#f7d8c1"] ;
934 -> 938 ;
939 [label="mse = 0.0\nsamples = 1\nvalue = 59.75", fillcolor="#eda775"] ;
907 -> 939 ;
940 [label="X[1] <= -0.508\nmse = 394.267\nsamples = 303\nvalue = 32.15", fillcolor="#f5d0b6"] ;
0 -> 940 [labeldistance=2.5, labelangle=-45, headlabel="False"] ;
941 [label="X[5] <= -1.86\nmse = 514.775\nsamples = 115\nvalue = 42.995", fillcolor="#f2c09c"] ;
940 -> 941 ;
942 [label="X[2] <= -1.206\nmse = 49.206\nsamples = 6\nvalue = 4.58", fillcolor="#fefaf7"] ;
941 -> 942 ;
943 [label="X[1] <= -1.028\nmse = 0.116\nsamples = 5\nvalue = 1.446", fillcolor="#fffefe"] ;
942 -> 943 ;
944 [label="X[1] <= -1.552\nmse = 0.031\nsamples = 4\nvalue = 1.295", fillcolor="#fffffe"] ;
943 -> 944 ;
945 [label="mse = 0.0\nsamples = 2\nvalue = 1.12", fillcolor="#ffffff"] ;
944 -> 945 ;
946 [label="mse = 0.0\nsamples = 2\nvalue = 1.47", fillcolor="#fffefe"] ;
944 -> 946 ;
947 [label="mse = 0.0\nsamples = 1\nvalue = 2.05", fillcolor="#fffdfd"] ;
943 -> 947 ;
948 [label="mse = 0.0\nsamples = 1\nvalue = 20.25", fillcolor="#f9e2d2"] ;
942 -> 948 ;
949 [label="X[4] <= -0.812\nmse = 454.701\nsamples = 109\nvalue = 45.109", fillcolor="#f1bd97"] ;
941 -> 949 ;
950 [label="X[34] <= 0.5\nmse = 97.988\nsamples = 15\nvalue = 25.403", fillcolor="#f7dac5"] ;
949 -> 950 ;
951 [label="X[3] <= 0.635\nmse = 34.558\nsamples = 10\nvalue = 31.454", fillcolor="#f6d1b7"] ;
950 -> 951 ;
952 [label="mse = 0.0\nsamples = 1\nvalue = 41.99", fillcolor="#f2c29e"] ;
951 -> 952 ;
953 [label="X[28] <= 0.5\nmse = 24.693\nsamples = 9\nvalue = 30.283", fillcolor="#f6d3ba"] ;
951 -> 953 ;
954 [label="X[3] <= 0.664\nmse = 5.118\nsamples = 6\nvalue = 27.092", fillcolor="#f7d8c1"] ;
953 -> 954 ;
955 [label="X[21] <= 0.5\nmse = 0.889\nsamples = 3\nvalue = 25.083", fillcolor="#f8dbc6"] ;
954 -> 955 ;
956 [label="mse = 0.0\nsamples = 2\nvalue = 25.75", fillcolor="#f7dac5"] ;
955 -> 956 ;
957 [label="mse = 0.0\nsamples = 1\nvalue = 23.75", fillcolor="#f8ddc9"] ;
955 -> 957 ;
958 [label="X[36] <= 0.5\nmse = 1.28\nsamples = 3\nvalue = 29.1", fillcolor="#f6d5bd"] ;
954 -> 958 ;
959 [label="mse = 0.0\nsamples = 2\nvalue = 29.9", fillcolor="#f6d4bb"] ;
958 -> 959 ;
960 [label="mse = -0.0\nsamples = 1\nvalue = 27.5", fillcolor="#f7d7c1"] ;
958 -> 960 ;
961 [label="X[6] <= 0.5\nmse = 2.722\nsamples = 3\nvalue = 36.667", fillcolor="#f4c9ab"] ;
953 -> 961 ;
962 [label="mse = 0.0\nsamples = 1\nvalue = 39.0", fillcolor="#f3c6a5"] ;
961 -> 962 ;
963 [label="mse = 0.0\nsamples = 2\nvalue = 35.5", fillcolor="#f4cbae"] ;
961 -> 963 ;
964 [label="X[5] <= -1.286\nmse = 5.185\nsamples = 5\nvalue = 13.302", fillcolor="#fbede2"] ;
950 -> 964 ;
965 [label="mse = 0.0\nsamples = 2\nvalue = 16.01", fillcolor="#fae8dc"] ;
964 -> 965 ;
966 [label="X[6] <= 0.5\nmse = 0.493\nsamples = 3\nvalue = 11.497", fillcolor="#fcefe6"] ;
964 -> 966 ;
967 [label="mse = 0.0\nsamples = 2\nvalue = 11.0", fillcolor="#fcf0e7"] ;
966 -> 967 ;
968 [label="mse = -0.0\nsamples = 1\nvalue = 12.49", fillcolor="#fbeee4"] ;
966 -> 968 ;
969 [label="X[1] <= -1.137\nmse = 439.769\nsamples = 94\nvalue = 48.254", fillcolor="#f0b890"] ;
949 -> 969 ;
970 [label="X[4] <= 3.256\nmse = 496.731\nsamples = 38\nvalue = 58.483", fillcolor="#eda978"] ;
969 -> 970 ;
971 [label="X[1] <= -1.269\nmse = 239.229\nsamples = 34\nvalue = 63.209", fillcolor="#eca26c"] ;
970 -> 971 ;
972 [label="X[1] <= -1.465\nmse = 199.081\nsamples = 20\nvalue = 55.982", fillcolor="#eead7d"] ;
971 -> 972 ;
973 [label="X[4] <= 1.755\nmse = 108.521\nsamples = 15\nvalue = 61.433", fillcolor="#eca471"] ;
972 -> 973 ;
974 [label="X[9] <= 0.5\nmse = 63.869\nsamples = 11\nvalue = 57.227", fillcolor="#eeab7a"] ;
973 -> 974 ;
975 [label="X[5] <= -1.742\nmse = 22.542\nsamples = 9\nvalue = 60.167", fillcolor="#eda674"] ;
974 -> 975 ;
976 [label="X[3] <= 0.623\nmse = 1.891\nsamples = 4\nvalue = 55.375", fillcolor="#eead7f"] ;
975 -> 976 ;
977 [label="mse = 0.0\nsamples = 2\nvalue = 56.75", fillcolor="#eeab7c"] ;
976 -> 977 ;
978 [label="mse = 0.0\nsamples = 2\nvalue = 54.0", fillcolor="#efb082"] ;
976 -> 978 ;
979 [label="X[6] <= 0.5\nmse = 6.0\nsamples = 5\nvalue = 64.0", fillcolor="#eca06a"] ;
975 -> 979 ;
980 [label="mse = 0.0\nsamples = 2\nvalue = 61.0", fillcolor="#eca572"] ;
979 -> 980 ;
981 [label="mse = 0.0\nsamples = 3\nvalue = 66.0", fillcolor="#eb9e66"] ;
979 -> 981 ;
982 [label="mse = 36.0\nsamples = 2\nvalue = 44.0", fillcolor="#f2be9a"] ;
974 -> 982 ;
983 [label="X[3] <= 0.636\nmse = 48.875\nsamples = 4\nvalue = 73.0", fillcolor="#e99355"] ;
973 -> 983 ;
984 [label="mse = 0.0\nsamples = 1\nvalue = 85.0", fillcolor="#e58139"] ;
983 -> 984 ;
985 [label="X[36] <= 0.5\nmse = 1.167\nsamples = 3\nvalue = 69.0", fillcolor="#ea995f"] ;
983 -> 985 ;
986 [label="mse = 0.062\nsamples = 2\nvalue = 69.75", fillcolor="#ea985d"] ;
985 -> 986 ;
987 [label="mse = 0.0\nsamples = 1\nvalue = 67.5", fillcolor="#ea9b62"] ;
985 -> 987 ;
988 [label="X[36] <= 0.5\nmse = 114.159\nsamples = 5\nvalue = 39.628", fillcolor="#f3c5a4"] ;
972 -> 988 ;
989 [label="mse = 0.0\nsamples = 1\nvalue = 19.24", fillcolor="#f9e4d4"] ;
988 -> 989 ;
990 [label="X[2] <= -1.44\nmse = 12.802\nsamples = 4\nvalue = 44.725", fillcolor="#f1bd98"] ;
988 -> 990 ;
991 [label="X[1] <= -1.447\nmse = 4.702\nsamples = 3\nvalue = 42.967", fillcolor="#f2c09c"] ;
990 -> 991 ;
992 [label="mse = 0.0\nsamples = 1\nvalue = 39.9", fillcolor="#f3c5a3"] ;
991 -> 992 ;
993 [label="mse = 0.0\nsamples = 2\nvalue = 44.5", fillcolor="#f2be98"] ;
991 -> 993 ;
994 [label="mse = 0.0\nsamples = 1\nvalue = 50.0", fillcolor="#f0b68c"] ;
990 -> 994 ;
995 [label="X[5] <= -0.591\nmse = 115.358\nsamples = 14\nvalue = 73.534", fillcolor="#e99254"] ;
971 -> 995 ;
996 [label="X[4] <= 0.898\nmse = 1.809\nsamples = 9\nvalue = 80.553", fillcolor="#e68843"] ;
995 -> 996 ;
997 [label="X[1] <= -1.209\nmse = 0.245\nsamples = 5\nvalue = 79.596", fillcolor="#e78946"] ;
996 -> 997 ;
998 [label="mse = 0.0\nsamples = 3\nvalue = 80.0", fillcolor="#e78845"] ;
997 -> 998 ;
999 [label="mse = -0.0\nsamples = 2\nvalue = 78.99", fillcolor="#e78a47"] ;
997 -> 999 ;
1000 [label="X[16] <= 0.5\nmse = 1.188\nsamples = 4\nvalue = 81.75", fillcolor="#e68641"] ;
996 -> 1000 ;
1001 [label="X[2] <= -0.206\nmse = 0.222\nsamples = 3\nvalue = 82.333", fillcolor="#e6853f"] ;
1000 -> 1001 ;
1002 [label="mse = 0.0\nsamples = 1\nvalue = 83.0", fillcolor="#e6843e"] ;
1001 -> 1002 ;
1003 [label="mse = 0.0\nsamples = 2\nvalue = 82.0", fillcolor="#e68640"] ;
1001 -> 1003 ;
1004 [label="mse = 0.0\nsamples = 1\nvalue = 80.0", fillcolor="#e78845"] ;
1000 -> 1004 ;
1005 [label="X[5] <= 0.117\nmse = 71.44\nsamples = 5\nvalue = 60.9", fillcolor="#eca572"] ;
995 -> 1005 ;
1006 [label="X[1] <= -1.245\nmse = 46.167\nsamples = 3\nvalue = 55.5", fillcolor="#eead7f"] ;
1005 -> 1006 ;
1007 [label="mse = 0.0\nsamples = 1\nvalue = 65.0", fillcolor="#eb9f68"] ;
1006 -> 1007 ;
1008 [label="mse = 1.562\nsamples = 2\nvalue = 50.75", fillcolor="#f0b48a"] ;
1006 -> 1008 ;
1009 [label="mse = 0.0\nsamples = 2\nvalue = 69.0", fillcolor="#ea995f"] ;
1005 -> 1009 ;
1010 [label="X[9] <= 0.5\nmse = 881.942\nsamples = 4\nvalue = 18.312", fillcolor="#fae5d6"] ;
970 -> 1010 ;
1011 [label="X[6] <= 0.5\nmse = 0.004\nsamples = 3\nvalue = 1.167", fillcolor="#ffffff"] ;
1010 -> 1011 ;
1012 [label="mse = 0.001\nsamples = 2\nvalue = 1.125", fillcolor="#ffffff"] ;
1011 -> 1012 ;
1013 [label="mse = 0.0\nsamples = 1\nvalue = 1.25", fillcolor="#fffffe"] ;
1011 -> 1013 ;
1014 [label="mse = 0.0\nsamples = 1\nvalue = 69.75", fillcolor="#ea985d"] ;
1010 -> 1014 ;
1015 [label="X[3] <= 2.115\nmse = 281.921\nsamples = 56\nvalue = 41.312", fillcolor="#f3c3a0"] ;
969 -> 1015 ;
1016 [label="X[5] <= -1.358\nmse = 206.854\nsamples = 50\nvalue = 38.11", fillcolor="#f4c7a8"] ;
1015 -> 1016 ;
1017 [label="X[4] <= 1.795\nmse = 111.88\nsamples = 7\nvalue = 57.443", fillcolor="#eeaa7a"] ;
1016 -> 1017 ;
1018 [label="mse = 0.0\nsamples = 1\nvalue = 33.5", fillcolor="#f5ceb2"] ;
1017 -> 1018 ;
1019 [label="X[20] <= 0.5\nmse = 19.059\nsamples = 6\nvalue = 61.433", fillcolor="#eca471"] ;
1017 -> 1019 ;
1020 [label="X[4] <= 2.249\nmse = 0.25\nsamples = 4\nvalue = 64.5", fillcolor="#eba069"] ;
1019 -> 1020 ;
1021 [label="mse = 0.0\nsamples = 2\nvalue = 64.0", fillcolor="#eca06a"] ;
1020 -> 1021 ;
1022 [label="mse = 0.0\nsamples = 2\nvalue = 65.0", fillcolor="#eb9f68"] ;
1020 -> 1022 ;
1023 [label="mse = 0.25\nsamples = 2\nvalue = 55.3", fillcolor="#eeae7f"] ;
1019 -> 1023 ;
1024 [label="X[19] <= 0.5\nmse = 151.565\nsamples = 43\nvalue = 34.963", fillcolor="#f4ccaf"] ;
1016 -> 1024 ;
1025 [label="X[2] <= -0.899\nmse = 114.103\nsamples = 40\nvalue = 36.801", fillcolor="#f4c9ab"] ;
1024 -> 1025 ;
1026 [label="X[5] <= -0.65\nmse = 112.982\nsamples = 25\nvalue = 33.182", fillcolor="#f5cfb3"] ;
1025 -> 1026 ;
1027 [label="X[0] <= 2.117\nmse = 88.007\nsamples = 16\nvalue = 37.784", fillcolor="#f4c8a8"] ;
1026 -> 1027 ;
1028 [label="X[1] <= -0.67\nmse = 32.611\nsamples = 13\nvalue = 41.523", fillcolor="#f2c29f"] ;
1027 -> 1028 ;
1029 [label="X[36] <= 0.5\nmse = 22.864\nsamples = 8\nvalue = 44.85", fillcolor="#f1bd98"] ;
1028 -> 1029 ;
1030 [label="X[2] <= -1.444\nmse = 1.389\nsamples = 3\nvalue = 50.333", fillcolor="#f0b58b"] ;
1029 -> 1030 ;
1031 [label="mse = 0.0\nsamples = 1\nvalue = 52.0", fillcolor="#efb287"] ;
1030 -> 1031 ;
1032 [label="mse = 0.0\nsamples = 2\nvalue = 49.5", fillcolor="#f0b68d"] ;
1030 -> 1032 ;
1033 [label="X[5] <= -1.181\nmse = 6.885\nsamples = 5\nvalue = 41.56", fillcolor="#f2c29f"] ;
1029 -> 1033 ;
1034 [label="mse = 0.25\nsamples = 2\nvalue = 44.4", fillcolor="#f2be99"] ;
1033 -> 1034 ;
1035 [label="X[13] <= 0.5\nmse = 2.347\nsamples = 3\nvalue = 39.667", fillcolor="#f3c5a4"] ;
1033 -> 1035 ;
